0,1,2,3,4,5,6,7,8,9
0.003631991465981973,-0.07562280583292119,-0.18027434215362356,-0.04283516025059104,-0.2180094471843308,0.18269759908473562,-0.1404479178372671,0.046155705821442905,-0.19390578178398654,-0.06859816861600432
0.17729874863692835,-0.22975766498247993,-0.12055649872038497,-0.10445100515205527,-0.04264599828032249,0.2642373845984118,0.020936867035523624,-0.08056067894982585,-0.1737927059597179,-0.18885105373716343
0.2687279412365841,-0.24647178799047223,-0.00752698298887092,0.03822324718070901,-0.15955562054078276,0.1508030247782804,0.300332313114919,-0.3675921704088372,0.043860394542525556,-0.22085672066556855
-0.18378339848272177,0.1535502849804507,0.10576355658302478,0.21696347198514063,0.010942159260833702,0.046285725619527374,0.22572698205271288,0.10172022279148167,-0.09074645765893029,-0.014998789858498889
0.1824812654161918,0.10379402533792849,-0.22324968450982166,0.11047233223431942,-0.2199207680616638,-0.13933546585052603,-0.05554159430246082,-0.18314381544863706,-0.151788589195213,-0.21217945724072002
0.10817880375312659,0.08121814232909506,0.20320625545101076,0.026582772270797132,0.07140334758599638,-0.04578408975531913,0.06508387640393253,-0.2417464728797107,0.10373805949981534,0.12044001181208581
0.03890391148727492,-0.1458771927333815,-0.1113146637461762,-0.11277492162419554,-0.28370601578615845,-0.1513200948623476,0.3403989697430566,-0.2942265693096543,-0.299006352782936,-0.2350532247496294
-0.04457001884438802,0.07711032607065862,0.27693539212039975,-0.09818094454648126,-0.2137940917512641,0.14816878063127895,-0.058352474195852336,0.029325363983878933,-0.08349043508263561,-0.11846961213865996
-0.12634150926471316,0.039071155118664776,-0.07518660145251828,-0.14543514369533034,0.10863799123923379,-0.15914529344047923,0.26156845936056994,-0.07969294959954025,-0.1065167260108828,0.06414973412726394
0.21906802767995934,-0.01679914349844729,-0.15678405594355493,-0.03328622890245736,-0.10070820355933682,-0.14118042935312897,-0.2786489833905573,0.08202322609831217,0.23016080634666955,0.24708895461705022
-0.08792262962432007,0.02553715917626214,-0.054600421582704416,-0.18252061285144358,-0.028434805043991748,-0.10197194120122373,-0.15187859606853055,0.22202754505245914,-0.1277545630592515,-0.08074966746327597
-0.035904825934288565,0.09639677375315153,0.18644718724293632,-0.16273288513578826,0.09681988565305445,0.03040208629171482,0.18849090024159268,0.14763037762561693,0.02013239676685609,0.14524262744294344
0.12204452775854545,-0.13828534875248327,0.030569043778109525,0.24798725473764385,0.11589929814326203,0.023981947509915884,0.0028548273936243283,0.15131280429487892,0.0799323367354851,0.23040404401453884
-0.02347077786103055,-0.01845047235977433,0.13723410037742928,0.03801276928864705,0.14169634499802974,0.08266682137839634,0.22253960987303298,0.05914143997613925,0.09183358445747684,0.13672135615636333
-0.2540309002541816,0.3486416466178373,-0.2067521489652666,-0.1439986287639471,0.02358591893398214,0.3401719517192163,0.08947332671370262,0.25311441630160497,0.26271111372201855,0.14856065632764942
-0.032938446931433454,0.18302117965168443,0.17178451883056642,0.11781827502473277,-0.26572187447753276,-0.04604279875925992,-0.1582701180239166,-0.03501579615856453,0.050674730778997784,-0.1585183541080344
-0.020519397029731063,-0.014002501421371391,-0.25399706724925425,-0.11644764232744893,-0.204234243712695,-0.20941412382769545,-0.1959585916520554,-0.08836175602466795,-0.12053970217244885,-0.20334760958978543
0.17731763274676712,-0.16251203205107062,-0.32103589307922065,0.13415896141920636,0.14086518976225929,0.1925239472836884,-0.21339398891801825,-0.10004089526234283,-0.04016150200796171,0.03298098244780577
0.2201492233102406,-0.22065921893010335,-0.25053896649520707,-0.017129128086540282,-0.22382620992242558,0.07779237295656835,-0.13475771508210918,0.2888970569329237,0.0027949653059524938,0.2629488894656561
-0.17402665749117943,0.0793121745400068,-0.32764470438707094,-0.15651775797935588,0.3771261803478043,-0.0521711298187981,-0.17678810950116494,0.38019144613307626,0.0277176599949268,0.29156311051458067
0.28605130443544197,0.001463105292717346,-0.11020153841995793,-0.2830631139486473,-0.15079747475391544,0.3173547004497495,0.07225237718677412,0.10347242115075708,0.09059705554810908,-0.05698698220018064
0.2162149103751695,-0.1647141214423186,0.24098698176970657,0.2972906362345366,-0.07814400298796655,0.17283553955891323,0.05984082990226489,0.0630543146941981,0.3065840343870634,0.06825291077152384
0.2307490883147671,-0.20708079423986475,-0.10132211772927519,-0.23526188041071253,0.15474419516456758,-0.05087753043929239,0.038162230308312686,0.10589140888486404,-0.1389822875510205,0.13142480013413735
0.03376605642118916,-0.30728581078170153,0.28579288884085197,0.17497763146528442,0.10389278130965035,0.08833696907714436,-0.16722301198088854,-0.09494829007048014,0.272415575023099,0.1146873073577602
-0.04553546700764852,0.1768259862462775,-0.2357987583857705,-0.1579145371649986,-0.21919993367768684,-0.07227542087969425,0.015037731571985964,-0.2035812167326918,-0.12749253911864789,-0.1648055302682033
-0.04653265034369458,-0.025268171826238302,0.027874515585122033,0.1284496500587936,-0.05025415776545832,-0.11463227445151353,0.24701267024124476,-0.1648499802425987,0.07896340697058893,0.20667915972806286
0.18702521058908309,-0.05498358026741903,0.3010436168763808,-0.03016304992584015,-0.18542489397376694,-0.17656063077674128,0.19690008760203162,-0.2907446998542519,-0.3066836480868141,-0.24403041515457238
0.2891512130126718,0.10665181742940295,-0.16720914296254513,0.19334175324940994,-0.16662602906778098,0.056773212131729804,0.07571059840266724,0.13562416292695614,0.15495761502733682,0.08418442207707715
-0.14110297061399876,-0.15095766782177744,-0.2215273815149609,-0.19873120166541228,-0.05962627032693707,-0.1742132419884726,0.039259040230832126,-0.00760659705991421,-0.11708294435262485,-0.12281536848324359
-0.13944459375423782,0.05901598268847172,-0.39436455089584144,0.020841690525735486,-0.047755919617422884,-0.13399287612195104,-0.018874570762408668,0.20893056905206614,-0.08569443295532503,0.34351658011464425
-0.08264566359137321,-0.004756232456254149,-0.002552758892053459,0.054227232544899875,-0.1685055174645435,0.29889930602130466,-0.1241940209376432,0.0881091388850064,-0.05959048450783476,-0.07296150692067963
-0.25820509401172015,0.19636527599779344,0.0303218168752442,0.26813303722427584,0.040833054961877266,-0.06309604453650888,0.03990350569014592,0.01660078719690307,0.06298542976622165,-0.04873467644816628
-0.0968002551678986,-0.011332140527680216,0.21923655033475128,-0.15858468565003003,0.060801584747472256,-0.0450076091011034,0.04788647881992241,-0.019171869911220458,0.18667701902569084,0.2758402317803381
0.22039502990473436,-0.1692066915578426,0.12262218892764279,0.13415298546423596,0.025699726390595975,0.09802860542925358,-0.020505425275879584,-0.04428047401868833,0.02958533174929294,-0.008395242445219926
0.09623015640565169,0.262416184595705,-0.028454777486319326,0.13536094756784275,-0.3144801372661849,-0.03852714555694607,0.10166793557205886,-0.2108143678196847,0.06617392180301618,0.01702153214173409
0.25624696070024555,-0.03880048949895553,-0.13436019743567854,-0.23004822556106372,0.26063250260120446,0.19086120509007062,0.05730444469917733,-0.12811585738196393,0.1849457096280965,0.10730118682786496
0.18999729742583243,-0.1557774589741623,0.1925320696499224,0.10968779735990244,-0.169840887551317,0.20691095082932995,0.24334027930405927,-0.3124493410664456,-0.11687136114090527,-0.202301379865793
0.1786252836430097,-0.0245202427279532,0.08091684555894339,0.15668897533654408,-0.24093354633435957,0.09536517938237918,0.169293828705901,0.13408838891411393,0.006509505383576101,0.04260577152247134
0.13075361525708526,0.10857245869033061,-0.09866578118782084,-0.08258569406110532,-0.13456179262830933,0.1748447304478258,0.23728253870896687,-0.24255293951161383,-0.07644186954131144,-0.18516323910527782
0.09998700503546439,0.19374231818187568,0.12454755061523674,0.0674218681827703,-0.45036332581486593,0.14766268764092502,-0.07289723634551548,0.14879767066591823,0.11172265521210509,-0.32579280790746995
-0.15460157373656655,0.03902870009038703,0.12719238363977003,0.25250588927952383,-0.09687590090663523,-0.022928619390995275,-0.13993410560669323,-0.06040416307244339,-0.20575449857866823,-0.26669659876037727
0.12373509087684906,-0.1763676944568852,-0.08751646556259039,-0.05901211748521074,-0.07789692557853509,-0.024966997892488657,-0.02047005633285926,0.010773914037038534,-0.23061293709894967,-0.2755818610044714
0.3401913869956593,-0.17790619526716153,-0.10573981764139907,-0.21221372678396888,-0.28517275933806385,-0.19126869470553362,0.003958164204020805,-0.06582640383587134,-0.28509411220482045,-0.341719477139114
0.07886640628344271,-0.08103511882373078,0.0586291352717346,-0.040494668040319835,0.13087680105687233,-0.20927143486230387,-0.12681135589450543,0.08773318176946368,-0.09884245048938144,0.03515675307067698
-0.12946578423413685,0.257272726492603,-0.04174706918298735,-0.16100322256552504,0.05089812478744291,0.04029099980159706,-0.02285527354119705,0.0753665703065363,-0.08047347564263904,-0.0846667582411816
-0.017517139688267125,0.17236026546446623,-0.0012887464638964548,0.02806337299427624,0.16455919803278185,0.03167820296341832,-0.05403734594249187,0.20993889257014003,0.13604227921956574,0.1264255554787937
-0.2198044830953207,0.19162657458088497,0.1756019806117578,0.03447242089142757,-0.13126923387034903,-0.19283361970734145,0.189467555867811,-0.025790083623791368,0.2916629266372826,0.0933477783810478
0.12578461826152082,0.26399474552669466,-0.21276836861930334,0.17506158122119314,-0.22770550462732952,0.22590960773767485,0.1631271874849233,-0.39762359912551376,-0.1243147402826702,-0.26006768241170986
0.0250403172826916,-0.10436133247169022,-0.27565793413839623,-0.007168044266338117,0.1424580286663395,-0.17517964940863395,-0.08976069700896404,0.2946414150681477,-0.19833126503768303,0.24560722385252046
0.011065277271842812,-0.16091014234293977,-0.022262947005527677,-0.2102531356584527,-0.21359228749691017,-0.06587944633457408,-0.13206184738459417,0.006939269422511854,-0.1056776085771401,-0.05861805687596154
-0.03304043554131902,-0.005807824671799,-0.20211707289976935,-0.08208933537725654,0.08056650477316561,-0.2429299296001657,0.36704010497181483,-0.271563198005744,-0.15396601324072848,-0.1257267393054302
0.2991045214749815,-0.17423408718151262,0.025874250402480852,0.012238205091176525,-0.24761348027750196,0.15274515831835941,-0.35134995476453423,0.2231432494653149,0.014612335337220691,0.11672535427588555
-0.19410265218191095,-0.03563935294701758,0.07783777540186035,0.11273114193244357,0.16836555463193703,0.20951052497207565,0.023471192505298284,-0.05252092613193441,0.2847492014732591,0.1855832128300173
0.11155168351450463,-0.10138863298424694,-0.13703280765770226,0.08517904992615398,-0.3197840588507555,-0.26917113245024826,-0.2314599304252223,0.17934625470896476,-0.22352634567389942,0.14847405501815147
-0.3119081491407186,0.37019846236741,-0.1455210666023025,0.04775938574603816,-0.09651208295400512,-0.3185935356000213,-0.246760085336769,0.09210934295341187,-0.15530144110849317,-0.1769183410273233
0.0663386011596967,0.1832924947663223,0.11543444914380156,0.24411903730438722,-0.12698135468442753,0.11001748418163675,-0.2460183305935975,-0.03235390652620075,0.2021630932519515,-0.07937189785931341
0.0018950124847491347,-0.0029184362834416685,0.020777826514721015,-0.20822157115944068,-0.23942815041012055,0.035895802112349176,-0.07764197324871265,-0.18510417824782172,-0.15502945440259724,-0.31118519294834746
0.24847690933802905,-0.29314719750173274,0.015323783864585891,0.07213027453820885,0.08842446926453804,0.22571145805474738,0.1793209335323458,0.06027800331349108,0.21964974670989315,0.021825168987641842
0.008434466303784546,-0.2321795403041534,0.22270709292850385,-0.05199863030735142,0.10691253204810033,0.028234355873611134,0.07437430438498285,-0.30747509116785043,0.11928106971756572,0.15095340144810554
-0.34671896705374994,0.4855128271197247,0.002102616487843214,0.24909824409041345,-0.19619018017043097,-0.007997089182008699,-0.19463087869513135,0.070345553105148,0.03166143409036809,-0.15706945467041472
-0.1275822501871784,0.09051273829792175,0.2924549109480104,-0.18123905360771222,-0.2373596174108928,-0.23626581807242247,0.016428128212793377,-0.11532286341382729,-0.13210044099914756,-0.2502337139466349
-0.09287693514789908,0.001822538037985723,-0.2817116286969814,-0.21859666114797663,-0.1300887803626919,-0.11317304516325923,0.0747500442355767,0.08282241980311784,-0.15537257514252828,-0.12475755012600953
0.23279360598087195,-0.07296101494754952,0.19874018914834943,0.2548640039194807,-0.12751493260817665,0.13846629383585285,0.05531863003584289,-0.019912976405295872,0.1278208637901927,-0.213428769498254
-0.1848496888915041,0.09607452151073886,-0.100408743374803,0.06910915020114404,0.03690562213099292,0.09667268422404403,-0.19525352313612962,0.14551005387041457,0.10983118947041319,0.3470936245353293
0.15320837718274932,-0.025653041594772743,0.21696878443924056,-0.1446740986721653,-0.18830116100762145,-0.0813995005916167,0.2903458504460234,-0.028993588120590982,-0.1737426491935347,-0.24940298708078143
-0.1408310699004317,0.3471489260048763,0.027301079321782714,-0.019567156222687825,-0.19431768140890956,-0.2632958550649279,-0.06215890663536131,-0.05953899072701623,0.142169045216169,0.2384563185655012
-0.13681437444296074,-0.01704167748521924,0.04908315673578415,-0.062082127499154975,0.2937743576100153,-0.12768409085866728,0.3912123623500348,-0.3106988591481363,-0.1525611573010728,-0.16418157332118508
0.02784239269619305,0.26441625683541775,-0.019011101045487065,0.17029033784998937,-0.2176875219185713,0.249973658215725,-0.1701409341667631,-0.12952303988099814,0.21874068261104215,-0.18176669336776186
-0.11358066767014915,0.07880017980377078,-0.18468475545113777,-0.2233267571950052,-0.06420823937286062,-0.19925256023319624,-0.09750399852445922,0.21540410674157703,-0.1697519219691601,-0.11504493173746122
-0.08577918213618707,-0.11124434251410904,-0.052129697366356594,-0.1682637008601628,0.17280705813285271,-0.16687612254493503,-0.21705672737052134,0.11012727888732833,-0.1984306172366666,0.22623619475492251
0.01672783596418243,0.11675579517943926,-0.2339199203925666,-0.18845799093951723,-0.05981448607961516,-0.1095750072362663,0.21937162509701655,-0.1049829382816066,-0.1473462545022031,-0.2625759334104686
0.15574119453727167,0.26133780577489646,0.15788351100004824,0.044813940489998004,-0.1682456632245587,0.24559485334394102,0.12032234582954485,-0.16135200588787707,0.08145885859287304,-0.12627238977449676
0.17039828433126028,-0.23392602995781966,-0.011018712405155999,0.29981444934453255,-0.09276628664955082,0.3496227384322939,-0.03865198755767603,0.09687981054669738,0.21447722058709065,0.06185213066281139
0.025197145196764404,-0.17497194755492165,-0.04893041015253136,-0.020949489336073206,0.1630890747050691,-0.028825862658739616,0.07734733154787791,-0.06560931176152691,0.048302855132530874,0.16794346439885618
-0.010743984542698906,0.06295561848034416,-0.11362462463186875,0.11166545813392224,-0.1562993168213868,0.20587510563941852,0.03440674164883194,0.11822443366948293,0.025268450727086864,-0.08975703809545939
0.08801384199376436,-0.08047031231741042,0.03729283202378452,0.0482068975589802,0.17341136378033015,0.20023616488046234,0.16457180301147914,0.1697964461985784,0.14936791947535685,0.1324948892991757
0.12930852252647868,-0.19598751368541384,0.08413137169324601,-0.18788087470874817,0.10307030137185474,-0.17363199194961854,0.21925512573059538,-0.15414238604195654,-0.09035364122279395,-0.23323535585123856
0.1431756764286299,-0.13652313214442297,0.1880736036732549,0.08325784017276147,-0.06889315322778486,-0.10082397875793586,0.0844268127495346,0.015965166830008412,0.03155445855819368,0.11012802186354946
-0.01864288874207823,-0.3230315313753004,-0.021940155877570037,0.11119099883359107,0.11069149952631516,0.05857998016119066,-0.08945666122473224,-0.22367633415368526,0.010668069687846308,-0.08787250115910346
-0.2182310458500487,-0.05538682664000078,0.06261976681085861,0.014498318950431405,0.12407759959823182,0.04210167020505664,0.1334631016559703,-0.28891890981473173,-0.16797532426383777,-0.2713238633293557
0.2870792139083253,-0.1918625142984305,-0.3352267734741598,-0.08041212668430957,0.12649662384206214,0.20762123724719025,0.2767307509908767,-0.2726602609604201,-0.17920352679749407,-0.05934127118179128
-0.19624441493464095,0.2853361399523898,0.05780864718840621,0.04477670772566459,0.11930726210163005,-0.10791998089521213,0.23949425661362256,-0.06058213982759648,-0.03856662091485431,0.20714877261991904
0.07226567612451121,-0.22543038926047768,-0.07937824234589985,-0.10436387953632306,0.32377524527905815,0.14218120455158673,-0.1783932912979196,0.33158023720081337,-0.07953787180454092,0.28240539563436917
0.10946476117211351,-0.17537559581068157,0.16210751813277852,0.01943816566165357,-0.004127570132778716,0.2346219071158923,0.1422145969942139,-0.29616249869124206,0.08140034436902938,-0.1815157945402906
0.2763798412551432,-0.13538766082716455,-0.21577197808024579,-0.3104624114717998,-0.31850829843073675,-0.07919694783162594,-0.14648547165419398,-0.2304483682283255,-0.1642743502408925,-0.2635602126632696
0.23011940842536652,-0.05938892727503386,-0.18837237165929174,-0.32624633945047793,-0.0585077964323807,-0.07132583595926215,0.021504846239491903,-0.006046748954252949,-0.05546587846537574,-0.11374481729729755
0.19844151651382325,0.051799725364855664,0.16243698113549748,0.23814847313133852,0.13873831690695057,0.13975507295883144,-0.0985306239125953,-0.24924061505431236,-0.01854493074679504,0.07638984041164762
-0.1542990128057002,-0.08145408522778406,0.12047627200379923,0.024825893185056014,0.39739471795225856,-0.1528058611593573,0.3027115304266789,-0.08098744305818129,-0.19205822530995206,0.23218058261202945
0.05219746425882762,0.003627920395675992,-0.07737479145611324,-0.158600518040309,-0.035709592876134996,-0.2260080200025153,-0.2358513226069834,0.08886691196407893,0.27186769377525927,0.038978303394735556
0.06297005236258574,-0.22281160046531714,-0.07851710592290291,-0.23830935540326623,0.2633043660462162,0.05476127336965981,0.09072096541007484,-0.1738806096396474,0.19569479988742247,0.007107399205157507
0.1675817451389654,-0.09993207742836131,0.030017827153237902,-0.052569055479540806,0.050948759514971034,0.090320437224487,0.01359604707944581,-0.13191880255238367,0.09077028062230091,0.00860367560206581
0.10187487200798231,0.06591285225404654,0.22049283645022924,0.03485339929922954,-0.15000130871067024,0.06627249151454043,0.15629230541939834,-0.24305262979235506,0.07044893746170523,-0.261818120825425
0.1924616281846348,0.012981975014934904,0.012632702165654444,0.2211621664568452,0.13923756681198954,0.27744033508883575,-0.008940659156659304,0.2661459183748675,0.1720085979798474,0.18265114166240093
0.016864150380627184,-0.0653406899464083,0.1878940907980825,0.1504266732889875,0.1370477210372162,0.1627099274034374,0.10300859429822422,0.12140921908144699,0.08997879572673417,0.18390267382513206
-0.10188923930005608,-0.20645997580594797,0.04351688620871254,-0.09275686235575609,0.13099354234759616,-0.14537141030389553,-0.2840850343422407,0.3608601528530645,-0.14642701023005983,0.11990606162114012
0.17777934390235536,-0.10410924244667719,-0.04187439147318439,0.23635137920349664,-0.23047580000420548,0.038940588582728156,-0.11679452274702998,0.2206604020911189,0.2150817813644812,-0.17978085406456382
-0.15151430918543893,-0.2703557477866062,-0.18803881408339237,-0.1770575834827319,-0.07912110902357049,-0.2507221035965082,0.010918718754470041,-0.13169045082934097,-0.1840444625075717,-0.13170454489900263
-0.21010455324658034,0.05514442741527739,-0.07887113112922843,-0.18444389878814932,0.27125358696800017,-0.12337535273625352,0.3211772451231424,-0.04277617467735996,-0.04417743984295297,-0.1971125551058994
-0.21116281532155737,0.21291537338259406,0.15913365450985464,0.08660018714364359,0.09633632740744703,0.22035787386250835,-0.019154755050070072,-0.352152180812896,0.27988137094750365,-3.784171555775872e-05
0.2734843729359008,-0.3281386384186056,-0.24737626305342023,0.06897664464860201,-0.1851687844144858,-0.11725639188938701,-0.10194249711382258,0.2781091423768008,-0.2604174645562276,0.3765550462802259
0.10613640692557852,-0.09983692704061398,-0.1343657828564948,-0.02563288938842196,0.13061852978999755,0.21508262181026302,0.0346145112115334,-0.05071566377657886,0.22380399918100286,-0.2717482817439406
-0.19185164587383544,0.34806288567950594,0.01672099942040603,-0.16871669753342058,-0.20940882931998941,-0.21951755006699397,-0.1304997079523118,0.01683800057079673,-0.15859340951567502,-0.16130016438583678
0.2403170987668903,-0.04246005553414205,0.11869023996838476,-0.27035426693044995,-0.039714953127471656,0.05989533403124087,0.2005700616766756,0.16343834515793823,0.09238912505645737,0.04965747359710436
-0.14409680443013537,0.04013408904424066,-0.11456313887816835,-0.2020600271906434,0.10707554141262289,-0.041867663850458293,0.27891150368369994,-0.30478061056118083,-0.21192574185451596,-0.09968332357330698
0.028647133170489433,-0.15031209410142654,-0.18080744839657992,0.062025148630005654,0.2030109793108516,-0.01470154729594044,0.23536568536794955,0.04118350511241126,0.005684326252062969,-0.04903925202537719
0.054630883539337205,0.040736898814425875,-0.1544764961960663,0.06917491941359374,-0.04852989920419832,0.30007269212118276,-0.0445583682648033,0.25258211312649836,0.14377702182571284,-0.14386999915806412
0.09924246495474415,-0.3611841809389447,-0.03330459374518012,-0.03736413433615082,0.31827736704170834,0.20962431251869026,0.02058725113192295,-0.09649778834280222,-0.06804014725037368,0.2146669008040841
-0.20184990801002092,0.011435190648822322,-0.09792156811800853,0.24429353271003756,0.05340950984968608,-0.06024117067847913,-0.23575569260660434,0.09809956381626114,-0.16676150991467265,0.21807450526068325
-0.19853346537471034,-0.006809544626159762,-0.277389591683957,-0.13388545681507943,0.008215445719527724,-0.06799218116078921,-0.07213103493527227,0.19214852025109855,0.18203073965654065,0.2282515437696504
-0.0016775449923821725,-0.07811229832456107,0.16661392633247865,-0.18077976143070426,0.14422023418591232,-0.16896966200858646,0.3070214738265322,-0.1971672760455075,0.01638455373895134,-0.08306974275072784
-0.25246983314140203,0.04676598460872984,-0.19869988787707002,-0.023577063333835177,0.3699795434277786,-0.09845131641782716,-0.21252088990285417,0.2847654157977411,0.05338668167884753,0.21007284708045174
-0.09775769225674821,-0.019616769668713178,-0.18004302423004181,-0.14030631967145066,0.20656200203018202,-0.1947024013384634,-0.12176253223917352,0.1631057231031722,-0.1567625017726108,0.133835431529319
-0.23639944444998234,0.24945790355978548,-0.07922233072115548,0.03414107666277309,0.15392232459250393,-0.1431450569262492,-0.176142753596088,0.08239789288745876,-0.1438568307502451,-0.24820962681013364
-0.1798772534577253,0.09094208195723,0.2858975730418356,-0.20860539067702827,0.3225965629371777,0.12203659977799428,0.2907046001146451,-0.29188658373550075,-0.043553037660342526,-0.2873427569518595
0.25900419718094136,-0.14606494523060537,-0.20249578268596072,0.257572864796243,-0.008624505716428033,0.25009664605653187,-0.08418407517999495,-0.15497520001690024,0.16179862673659282,-0.0619214987936866
-0.07053861225722044,-0.025171931204755173,-0.03045988425983474,0.3511202999290426,-0.2044882164839381,-0.11132530092579548,-0.1467074012240197,-0.19257868134821549,-0.2091070893179558,-0.18659046187503475
-0.27261145615337945,0.22224042141816602,0.11638141749754384,0.3868120471959706,-0.0570939192344528,-0.29223829446990807,0.04260679695976464,-0.09178110875454824,-0.400622991120181,-0.24811859822276866
-0.09984992847217601,0.2704131449651823,-0.055270448388040364,0.13436719114799234,0.08748350645976415,-0.2551039380813409,-0.2832950652911638,0.26120065266441306,0.05971375484195803,0.2474423350038587
0.13589567743217085,-0.24086324419917055,0.22487561682602167,-0.33421056159410845,0.027129903933665035,0.002904342175142121,0.21077249255821018,-0.434254430728872,0.16578920579073042,-0.07957752820972515
0.06756131103249442,-0.14252646979316044,-0.02716527909979249,-0.04364840063887345,0.17798604077825292,0.13756060074668275,0.03587544089133667,0.2793879459624658,0.13588209617511093,0.23092997362708934
-0.22029510524458842,0.1112736580924947,0.008622366436451746,-0.159975549289562,0.1932537151543531,-0.08502061224634719,0.26378005620008105,0.09352217942266573,-0.0043890863149983845,0.15884342823660902
-0.10006722259723821,0.07902832301633315,-0.2972392014381466,-0.15457275097225595,-0.1494872672604991,-0.156364545139869,-0.17661928412103134,-0.1778519018116809,-0.1619139631019499,-0.11815044074779764
-0.11212377615193678,0.22381548688682462,-0.035973746703040446,-0.07778965308180308,-0.13233612512379178,0.18508655213515654,-0.10157018177832582,-0.0030109686278363117,-0.140948942971093,-0.06284599178023452
0.0580758792705377,-0.09567648302620393,-0.008115926119798689,-0.37666303870048096,0.08653120831229551,0.023330362997149162,0.1378707397554192,-0.26990468136603074,0.21447501276793682,0.18856411851830177
-0.11196267330380485,0.2401044498177944,-0.08192837606965722,0.0434454972313033,0.1353747834958362,-0.010517370271798252,0.19046285791777529,-0.03523225743274424,-0.08071490161669305,0.247431118229512
-0.05655106485371464,0.25927688819392397,0.07706244809460452,-0.2002719770358494,-0.29953475362933724,0.10479213921903421,0.23561020332727736,-0.320665974616028,-0.1818290215540333,-0.2932898343962058
0.15105986918397354,-0.2303335082129147,0.07658717959124237,0.12736179280433718,0.11384281492238182,0.23113970522672456,-0.2325087965291617,0.268528323781408,0.19977631348954505,0.28874857640374313
-0.2156055995844292,0.3376277992682334,0.16104850308087823,0.07381314187696192,0.12974204385633853,-0.15455864077317913,0.2062117573890109,-0.09717824286680855,-0.08736407134347221,-0.1524257877370248
-0.09073470391367829,0.012498954549624512,-0.058482456686468814,-0.18449418841639015,0.08723752019809393,-0.22358213575040953,-0.12883420421128228,-0.08962040837165794,-0.12950688304640046,0.13974795505415052
-0.14908239898509704,0.23090544549859632,0.14918172727466986,0.17520905544465543,-0.20164321178675032,0.04681207937775395,-0.24975596796531893,0.3095645327620982,-0.03728284859944144,0.08064218758298498
0.09706550441884258,-0.3622808101087731,0.07230892217907703,-0.20180838363591447,0.09211534987566711,0.23164749591221498,0.17388072404261617,0.0182352760995817,0.13169558802448278,0.1089886958958589
0.25787055282171034,-0.25800432795660666,-0.03824999328591784,0.25056292099759975,-0.15085528447057722,0.30860279970555043,0.1569110196987108,0.025046182169548858,0.29820861109229047,0.20718472244214206
0.1019745954249739,0.0025778640135073845,-0.05986928819133133,0.245211310816074,0.17551613828305465,0.12538714172422055,0.053195215705394996,0.18179462621674342,0.15578166340920593,0.11298959009371923
-0.1454177107416092,-0.022193176724653003,-0.054145751887429865,0.2061521807418688,0.05196194735231015,0.10889967141268861,-0.041218875145584956,0.13298596617201489,-0.02019597849485663,0.08147833153930602
0.19824173401375342,-0.22434759630407264,-0.12587432442967883,0.022730496167883016,-0.2174745760402203,-0.1874005925957161,-0.3168179882201136,0.18895036291556327,-0.10848067003476289,0.08732891472935958
0.30175968453658975,-0.04056331237237617,-0.09756179762786663,-0.004284426754449386,-0.3129829233823299,0.08414792003095009,-0.09558362464020363,-0.2926564465300012,-0.17508059122951447,-0.33688877117631816
-0.14338192429453975,-0.0540487568765724,-0.09669850263811901,-0.22258895099807136,0.3070085217682807,0.2052951075583343,0.3084172502169758,-0.11082622918529275,-0.14815260737650007,-0.25019567735780457
0.13328721218139872,-0.22367689380064326,-0.011748673828458712,-0.1714933866127583,0.13240134541934193,0.24538580166175697,0.17450146605029793,0.24716673072388495,-0.023731274968664215,-0.046467781450739556
0.11909540611629131,0.072179218784455,-0.2715564339085627,0.16180023716428857,0.0017128080388532818,0.24665622001864643,-0.14521149316886925,-0.03963200748321537,-0.06564458830580043,-0.05398939226318632
-0.07820394352507985,-0.034158530299294526,-0.07049915884215606,0.22706791218032404,0.20128758967911747,0.3085383339735374,-0.12852067036760034,-0.14847162679068637,0.19215613580049348,0.16380677231983762
-0.05276717218817665,-0.11884816493751224,-0.11419288395733584,-0.061886690034986196,-0.12666699343842241,-0.18328760565517271,-0.15011070849981786,-0.17299721204888277,-0.09032675646735262,-0.21961556974433866
0.03592555912520663,0.15354144743667825,0.04764287525848648,0.14961101641183572,-0.030026191046640196,0.0270169946796612,0.020124065674790727,0.03385293669037984,0.061316591535983005,0.17720071171903568
-0.19385253782174788,0.16926071208487312,-0.03247895290592512,-0.0808396325381996,0.18868129171675746,-0.2616383894547118,0.12567292628363907,0.19934070298638373,0.10906291852031375,0.12635347520117304
0.07257207873305642,-0.22710374079728352,-0.005125593127887887,-0.21715563047813993,0.053750335576575915,-0.01795429621272205,0.3082664631113219,-0.22562147273865152,-0.13851851574499618,-0.052769839738247754
-0.15154443643631382,-0.11227578004925444,0.05966672672882289,-0.046699264250493505,0.28207840403783724,-0.19627445068807722,-0.09248195320725136,0.03851556596040883,0.028060005068018087,-0.043549995944098974
-0.004185843238118732,0.15164267590487385,0.16594900936766327,0.21423687168295785,0.11003963753658765,0.09244239563578359,-0.03595700960257494,-0.4771318846994959,0.25063154047995473,-0.04796880107302185
-0.09788575466027384,0.0020161735051269815,0.11752344312921405,0.06974936110596928,-0.1946932081267171,-0.1519536257897328,0.03896226960222955,-0.20415907831263713,0.16808113195576713,0.06748513990931865
-0.14418598653867956,0.10977697789746065,-0.11473114016610406,-0.20078148976549254,0.2902156286072253,-0.06519135518766023,0.2985484963539048,0.035899459980186475,-0.08868150722610908,0.21146117472235026
0.045620956504533294,-0.17525617101318486,-0.1693479386580136,-0.12060858354022327,0.22195392648601087,0.021640498725886307,0.1985213913310247,0.13937648113079845,-0.06711871155643044,0.3116854574752268
0.1186874434512659,0.10860823673833006,0.09686376291650255,-0.034329259708193664,-0.2247624273757152,-0.1290613552759448,0.1366747493757655,-0.20227686515944665,-0.016740106888893005,-0.2626135499681545
0.024876733536484733,0.0873350322000296,0.13915258014206677,0.2727129847925619,-0.3359651883329848,-0.023249959535187468,-0.09511637607568099,-0.02240283901822531,0.12798507357241592,0.036906040146513955
-0.09762796957923651,-0.008858872057030974,-0.11911350675939268,-0.1804652937476806,0.1264723098977102,-0.23582041095663647,-0.24532605943692123,0.0631383774417716,-0.2180320373559963,0.22548832247461797
-0.09924788679319445,0.21638300800504295,-0.011841829492113357,0.04961231225665458,0.02008796719007251,-0.28462327221458567,-0.0007717072149064585,-0.1317626174118797,-0.2373481974825955,-0.0546272495997914
-0.17917467074715254,0.08825825191486335,0.1535241385297395,-0.25250476821776213,0.06316387709870909,-0.06928155623009538,-0.13346016519663045,0.17807476315253534,-0.0834701548823808,0.010153373624630103
0.2067227298076337,0.054807864201130256,0.19815950442197902,-0.009906390081313747,-0.3128281747746182,0.01668476409607951,-0.00904953242853296,-0.051565675922212104,0.011633146252507796,0.01916568014714614
-0.04536409154257043,-0.11040251120909672,-0.122128928159932,0.02112356556904829,0.15102600358669846,-0.10092946054952515,0.20744974955497605,-0.0016696265493100467,-0.27810323535551046,-0.0073175865800998675
0.31749591619701006,0.024197230059876697,0.1560420497244639,-0.030814973725880365,-0.3146764558375264,0.19055018869881815,-0.07144660208465674,-0.2742320274259616,0.06594102000098827,-0.2624385435165758
0.21133879897582933,0.046456653222661036,-0.1200391908059696,-0.05284901625423286,0.03693070550402329,0.301810787800009,-0.12931506668611448,-0.11793977494916479,0.25367654137937384,-0.04052193436105026
-0.26432412615861095,0.04727149606610209,0.06871109620362983,0.10492395721352706,-0.006154207629203702,0.03883640323114093,0.17729796838895026,0.1389011024169364,0.02963621520618192,0.0006969564964378862
0.34133131852701504,-0.07026286978508761,-0.17022417282425154,-0.14449236400715385,-0.08088829384658223,0.1271799404029242,-0.031467031965806636,-0.02801451397743812,0.1621408271890654,0.05456043839842884
-0.03303137847395856,-0.2785451526863607,-0.1638612144096213,-0.05232618024148427,0.14565596633923816,-0.20980204156964383,-0.002078602370650081,0.17343300078080787,-0.1156566698312702,0.040138480443130196
0.11633685604954495,0.0959792798876926,0.17809364493974073,0.15962749726975328,0.09538484408668611,0.242276511322899,0.03002464585455625,0.20038502674318598,0.1294461526755704,0.1533255380630255
0.11476460337329673,-0.07031941270028547,-0.10877302413653699,0.1890987571606301,0.04348224999833383,0.1601897310026665,0.05418173690059411,0.11542932885903985,0.16234226449959488,0.160988728794185
-0.0971679077177397,0.106663228584631,0.1303383372929278,0.012357976818685522,0.16231975003247484,-0.11018014469029806,0.2363913280598496,0.13618936299986753,0.10979206089490048,0.23647190540747876
-0.38109288622237886,0.19259132361550893,-0.1852822299627877,0.028940001101686708,0.30099212057167185,0.18900448608330198,0.15665733930960393,0.13393945006581076,0.16153576332143085,0.2542819767212858
-0.06862496410435749,-0.10160157876784588,0.13543457804103073,-0.2251607993209111,-0.22592343040977897,-0.019103624166462375,0.1506567888246178,-0.07933345389422222,0.137771734362212,0.01938151451168099
-0.013731670574838508,-0.09268013754284327,0.14121476289460294,0.1684478254416281,0.2725852253676362,0.15088110905307728,0.1639777700424634,0.29189677571619155,0.15594042836469452,0.2791650021922297
-0.17732475870577816,-0.03772231502512876,-0.1265843106924906,-0.18527867260414765,0.1150071553074749,-0.21032234512812287,-0.17257161301916407,0.3123155801887725,-0.1069154233788126,0.2662534333386104
-0.12370752184881023,0.18377861184583338,0.31107556024939165,0.09984908719058981,-0.3540310094500495,-0.14050314352681,-0.058827229243727054,-0.29124342969963446,-0.1260339483592051,-0.3277667656733271
-0.08913348270464984,-0.04502045815108761,0.1840656644294669,0.017323125532547966,-0.07800601533889404,-0.10364804701756608,-0.025870449996719225,0.2018068222269432,0.02886580892000584,0.25595702781611235
0.19889391146718824,-0.07003357710930885,-0.06309106790969256,0.04013223878031795,0.09669760916039312,0.028443542805277982,0.08499574539272796,-0.007303291799261305,0.09946997418208577,0.15829228408455454
-0.1780828782408132,-0.14292680353065543,0.07770304391963921,0.2241744014624451,-0.060430391551001626,0.1604175202669306,-0.11237175572131924,0.15826565609138707,0.06615792960340683,0.06515479893900232
-0.217704438246128,-0.11650095807526939,-0.05445708796735512,-0.08786954581705905,-0.17928852282598973,-0.25650435215687195,0.10521897902127379,-0.1112066455446836,-0.19653488348438206,-0.2885662017469396
-0.05841895731553074,-0.17001714841552365,0.11311099546520502,-0.13706841858070992,-0.19810324531433882,-0.3077860691914826,-0.216408846153741,-0.22356463584344213,-0.23393907360181468,-0.13174010800218172
0.000546299786304793,-0.049880576170886586,0.17394833640882745,-0.10179106528471148,-0.042892606496097094,-0.09521554125770677,0.2258399325794165,0.05046690599601434,0.1615458085871173,0.04344688194035775
0.018902973483681713,-0.13303324380592052,-0.0474452502121602,-0.025473977043590425,-0.017379694817392686,0.12724108905864084,0.2421446696528655,0.10563243428897402,-0.1610828501187736,-0.0436136228993191
0.15571028236360213,0.18471066674054248,-0.3039357660518678,-0.2082124751307727,-0.17312987158889873,-0.04938342498371018,-0.07380728988436767,0.03022219464103106,-0.0333410929650653,0.16298436692681614
-0.1931735716176742,0.12620583262849855,0.23519240358576796,0.19969088172153893,0.06846664757565836,0.04171799807014333,0.04410862137575501,-0.22322228291178833,0.0758289661165747,0.07051093131273113
-0.12460126399475867,-0.24566795600052166,-0.07375462811784403,-0.23156974360280302,0.14038456665159935,-0.2217563462670367,0.03161361056602313,0.3751815751011916,-0.14209617543502684,-0.017413227773975713
0.06085137284425529,-0.1688382926913636,0.1072881449095511,-0.20283950463165637,-0.10131361110637724,-0.05618779604739192,0.11693628338945294,0.035814756098992734,0.0804743420427135,-0.06818232499256284
-0.12447538480500159,-0.06238293397606515,-0.011983371153509195,0.16612597559174128,-0.039283104624104906,-0.2760465915424033,-0.2545149396453501,-0.1851888116771102,-0.20356457004060544,-0.0014871821969541594
-0.0894382661455525,-0.21155009535781552,-0.04900354269212204,-0.14310574759320363,0.123253496195994,-0.27373019017397215,-0.0472745893421641,0.19242266132046437,-0.18106302269920152,0.10902094061203278
-0.12288287228325379,0.2691994731950743,-0.1373435163776576,-0.12623988093006694,0.34126387421220544,0.1348672817191841,0.05175250818917374,0.10774051108078257,0.14435609442745248,0.04736347634232853
0.2824692593532677,-0.30755618181997,-0.03584495742098814,-0.1891054061987085,-0.14478522081094752,-0.05121698828084411,0.16201982164296397,-0.2600776057763217,-0.20854133439425948,-0.20945822384581628
0.17744814150040664,-0.15491759950128153,0.17234817002213837,0.07512340991775861,-0.08735407696704288,-0.23792270300248083,0.07714565625817829,0.07773818080793284,-0.13949957570658622,-0.028154612352551837
0.08996907788507733,-0.009655568956206274,0.17765752692600095,0.10818517190348895,-0.11077400350238095,-0.1179855709001185,0.007714588097664054,0.06681317527210127,0.16970711974522598,-0.08964201156882051
0.23325003783505224,-0.17427351574216415,-0.22411017752354453,0.018110419864581635,0.14252410599769527,0.1966911241449092,0.004415091929176673,-0.14416166043134737,-0.1505969793440263,-0.22709610173337935
0.08537163177513381,0.19112881226820155,0.28406767536487826,0.24284113887003633,-0.38600602600830086,-0.19985736111137714,-0.013214996177527881,-0.18232303544710224,0.2086402385786643,-0.12886621352546523
-0.05989424209361276,0.26070954875270175,0.2382749391468315,0.23689740545710486,-0.15401065006500408,-0.0948596401012966,-0.06507561479920392,0.14600958100061945,0.037616525766449666,0.1078595699373555
0.1956931994663656,-0.0031785119087510173,0.25814952611462094,-0.11216943496992644,-0.3157256132095107,-0.12325479485681101,-0.12153073743240372,0.008689954032467634,-0.05443242860676192,-0.12621628589306055
0.180297858753178,-0.2801650418645299,0.0008628075431093106,-0.10511923022244016,0.08995185525421504,0.14340679409253376,0.1141491232354928,0.03504664900074052,0.05082015711833486,0.04352869722652032
0.26142527552336575,-0.13044227651536702,0.30573506923962346,-0.21601184658008118,-0.2755692944512538,-0.21171215511462788,0.25146205800557137,-0.3114660676066611,-0.11938964936082354,-0.28289393843497196
-0.22202474391139312,0.007207565682494066,-0.22317022951387122,-0.24817642838855244,0.1263264792627783,-0.057168112402375085,0.16944926773945695,-0.006453002165139393,-0.14861741283083088,-0.16554000075879002
0.11388610674539164,-0.0851006051047426,0.015355588188879214,0.20515829589275747,0.015233919477982041,0.22670262837525215,0.21840792069986592,-0.27724160423472216,0.2155398768961144,0.09560115767464955
0.21237605934182727,-0.3046336385748642,-0.08311100735128045,-0.05619717339932476,0.1443902284481361,-0.08431836167014177,0.017815024513351072,0.07121431421349572,-0.17739001380249617,0.038008952381110676
-0.10750733050313131,-0.07454087917792761,-0.1348131181590984,0.10139883182258182,0.07764853527098864,8.04277769915697e-05,-0.060463627844071235,0.040446572344192265,0.11909299607746988,0.08413013987859466
-0.010024546563086215,0.17184228978560762,0.1337857281950322,-0.06382605602073015,0.10715734326580702,0.05266507743229615,2.9207565451097173e-05,-0.057889451492226775,0.0923721325257256,0.09754680708067101
-0.07542557519136851,0.07548247050368014,-0.09111469552809948,-0.18185805040411282,0.24360617365211543,-0.059950544068633954,0.09428059679035751,-0.19215019609032596,-0.03924068353964855,-0.034465471255165435
-0.22957200616621967,-0.0018931036958007884,-0.10965470506413291,-0.06016794667805893,0.2580481122297989,-0.10094468712624476,-0.3025886086354527,0.37281560881941594,-0.1684279804345612,0.1939615528139898
0.1787712880782849,-0.20283646090288376,0.10052327257761678,0.2581884899605799,0.013574366062986416,0.05324128507900356,-0.12253108057818751,0.012596574138202327,0.014993501345196107,-0.08731200966868902
0.07143843222428564,0.2631832956856709,-0.016521892427259974,0.18337352217105762,-0.36085100851276897,-0.10114836528060459,0.21500661035276847,-0.4110447474571364,0.010051338713433755,-0.36660118538620085
0.022262175553582463,-0.06187840540671744,-0.24332931494991117,0.09940553172705381,-0.03535293748573158,0.10103792879461679,-0.07041916588202897,0.17784970951013288,-0.17145582790551808,-0.22873928630601348
-0.1414861589788646,-0.07147905414700101,-0.16379736283606663,-0.08526405685352786,0.1653349393545885,-0.008071490618588091,-0.003052121350760494,0.21426731949636882,0.08559200233129412,0.21564403235955154
-0.006894225905301367,-0.20153318206884716,0.14700685292431112,0.25406388549269787,0.18068121479536553,0.004256918452328289,-0.1760744428172932,0.22412851139751397,-0.27689015008388845,0.13854059985917505
0.07502117900302661,-0.03851378857417456,0.19689846363408559,0.04632590934127898,0.03976710774818262,-0.19709479150812306,0.2558168710241458,-0.07445234588739368,-0.05382953658438592,-0.06508333295479087
0.10003248182437809,0.15151344336252626,0.01746424194906395,0.16111631319867023,0.004912832620169917,0.17632759885573154,-0.08570296328160748,0.019698557709900165,0.25966559753053126,0.15932464905359062
0.14098706431544053,-0.17799304119722084,0.17681609271342202,0.19985946888811298,-0.08461175662466566,0.14254492939639204,-0.21060333558634844,-0.0446182412382311,-0.05731415594399744,0.023107740184272127
-0.11079111784145387,0.22952591560577418,0.20522206631709958,-0.16752658003165077,0.11528440730182306,-0.12864499197259918,0.12974014565567113,-0.1881295886683095,0.0028897518944016732,-0.17284805943994477
-0.20311851117600555,0.21119326321219614,0.10740643193353851,0.10625890326777322,-0.233900211490791,0.0044149187558536005,0.23742445153868627,-0.08208311366181929,0.05097750352016805,-0.07128750551064675
0.022476815938753312,0.25294396533723007,-0.022439105811566946,0.023841326445413553,-0.1137604955891706,0.1261789313856339,0.141565308128085,0.09809188972036445,0.00597617362575023,-0.19235799908879633
0.12277700951406596,-0.06522850662672794,0.28827362072302887,0.042557391677949155,-0.13807380877090042,-0.39500565720726294,0.19709835249902669,-0.31687809178442206,-0.2330973708592777,-0.20402425056589366
0.1786844908517066,-0.121330277101546,0.1590984488738878,0.061467376028131224,0.07803813891565907,-0.03396823718253533,0.28470994060243143,-0.08045355280229848,0.1411486011878873,0.03388770328819701
-0.06235472540181001,-0.05768922253231525,-0.12150316097368459,-0.2597946542823506,0.04915786741572512,-0.020403709436930238,-0.17859943617643076,0.1544343612090626,-0.04243045292809485,-0.19346975492189908
-0.052832448060566674,0.13510269691210097,-0.18361692797117535,0.29323063537386035,-0.2370038794862056,0.12546292629590808,-0.20122190510621096,-0.13246527392796834,0.024129765482885316,-0.2610037060203016
0.25283065106256586,-0.41103938843934956,0.1858275744980132,0.18060809935012004,0.1789132087827358,0.3482525498680432,0.12427853626917629,0.04451105675345282,0.22101892926211358,0.09820371745535263
0.09702198958714743,-0.09114086355020316,0.14290988409450145,0.2699846308485822,-0.02266353787834241,0.04853933387485144,-0.26290885979104867,-0.20725517979237865,-0.08667842264151517,-0.26429869562835706
0.3060549023329317,-0.16111870609336768,-0.1270799806522745,-0.22170699903474936,-0.025189313469887748,0.04434332925694565,0.037679086548982506,0.23207641783858401,0.014215052773600448,0.0016246387303127524
0.10023363688709555,-0.019085436601729244,0.180684602429633,-0.06382361577028417,-0.316017272099894,-0.04798756600062482,0.14706615574708615,0.011624203138066723,0.0201423602191644,-0.21730508186305372
-0.12457478302835753,-0.08764825665833108,-0.06329601762984725,0.032937970533092324,0.26788489566343104,-0.15434544231172245,-0.3063639897193497,0.19329667613704854,0.02956700683358878,0.1552198683036456
0.22941080519553916,-0.2517030692362779,0.12445685846432408,-0.14190597129251767,-0.07372517242199425,0.11134428134349804,-0.03920306568412943,-0.10658153830687522,0.013923174780162518,0.06783734617953034
-0.05170176377193996,0.10636178726941525,-0.07995162605405245,-0.05831012438907311,-0.07861908545430454,-0.07772019516993436,0.23872645274625617,-0.16239725860231619,-0.01385364799956734,-0.22204045469025424
0.04770210769782077,0.28459851605025405,0.06892284611049203,0.11529382156556431,-0.17582903829605587,0.20477400491929523,-0.07028711115531668,0.08121439836619172,0.20427886280828883,0.0764098093713507
-0.14851847210716393,0.42888714456860716,-0.029097281237905972,-0.24410285851391014,-0.25631087398460506,-0.07815265502847629,-0.0038920670315486716,0.0951899277400198,0.14484609629403006,-0.19639119056218998
-0.17381255700014842,-0.056430684793168186,0.19154399929656474,-0.11604007935845466,0.24567032284815707,-0.058425408867351286,0.31316768456387395,-0.14692699874754375,-0.06836153888765312,-0.1260091731672149
-0.18608680905607083,-0.03596234719456917,-0.010534727584543208,0.12719764743116901,0.19411183698799406,0.24214044558013495,0.18615133420537436,0.08788804216631023,0.1809777156628463,0.22656771742709067
0.2717865205221824,-0.2913537017129764,0.1888995424807858,0.1273868445658078,-0.10433633950548486,0.2540610797231891,-0.1595231926844769,-0.1184367422243831,-0.03527846763557062,-0.12208266578892393
-0.11044280518741113,0.18313774069738323,0.12207470397911006,0.07512489904165383,-0.31557525228738503,-0.22468118371238877,0.1729442754957851,0.14738005767832946,0.13635385586716434,0.1940934401700568
0.013617503440988086,-0.1582770739940269,0.0513065064268155,0.17421674358604303,-0.017618621824190467,-0.09063142551696014,-0.06601403756508523,0.4471915823563585,-0.07079092785724515,0.013654355895828927
-0.03260233701820839,-0.15357522255154546,-0.09298626014298332,-0.21264692759958898,0.09640346060213824,-0.130083264941185,0.13305890870003012,0.013433228701608244,-0.05670828733291604,0.03928525560435584
0.14831183271237738,-0.3630254417646903,0.06515702748357861,-0.021211679876026675,-0.1343204848574404,-0.0038801277077474506,0.013595111387717846,0.05526264160917419,0.1336595960388743,-0.20167255148845348
-0.1446676428283427,0.11590639661443529,-0.0771775718398922,-0.08066768001154867,0.24856877264672778,0.0084339226986138,-0.05953988122962801,0.34113879660967905,-0.07586317900993572,0.24808621853070098
-0.2528386750962754,0.2840558992313076,0.2046572367142481,0.1511714858621304,-0.10539064312202145,0.12978496200686115,-0.142002758223739,-0.29262971086593076,0.039494066138570004,-0.3065267164815202
-0.13542095846572216,0.4691664089846716,0.08649654640200612,-0.16884697895637688,-0.28961337592283887,-0.04019429933924503,-0.2717107488987495,0.09598858524444676,-0.032028757206259154,-0.2277093100512619
-0.3276927472075781,0.03673542216081858,0.3021509275436525,-0.19049833816064443,0.07738164468119474,-0.19479962276513318,0.3177372048606595,-0.39115371771873697,0.1379539058495618,-0.26649565603025094
-0.18371244083483607,0.06869286353754511,0.03440943809138678,-0.2655204494317607,0.0655391820220578,-0.21236417517584974,0.16552631936230588,-0.09085368564162062,-0.08974898502140004,0.016942529437581493
-0.06089031182244797,0.11866123277493637,-0.07449489410187286,0.2343300790969594,0.20448171693585793,0.19764591224290665,-0.010367395125509314,-0.12407923445742251,0.20240378398300016,0.10451513821336732
0.10040614415321227,0.0132705188739205,-0.231209556446307,-0.205310248355881,-0.09080991811592488,0.0884250703953671,-0.12881696975044513,-0.0161502345546109,0.001981599144061804,0.1551781468430711
0.08887235340347659,-0.009960277033405058,0.10286483472716726,0.004905189387254961,0.19802659921444052,-0.05933308111167043,0.1373623056386756,0.01052780506434979,0.06558394141323418,0.08515600565687678
-0.10541146648401917,0.4577094561775293,-0.21098150807012517,-0.0849667870993836,-0.1495601622252527,-0.06828471316858697,-0.1468625783673829,-0.08130926109020123,-0.007531717413394909,-0.17129179125253094
-0.06476701504740437,-0.03517840607813824,-0.2823193842696258,0.004120822748365736,0.13414547368698604,0.11547766175615726,0.36159695356129345,-0.037118991885415106,0.08371215388154074,0.030463826218170845
0.01151450696310864,-0.03718033198613654,0.133505336671641,0.38514914720643617,-0.18192234015302428,-0.14366609378349005,-0.22470692164866715,0.04697621162931044,-0.3647226649952439,0.03118333780984467
0.0950988954149514,-0.33330276390073393,-0.17986423161132317,0.02744701348241486,-0.037036025026671276,0.25573363713060027,-0.322816649807383,0.3308923246908235,-0.24325535101776358,0.1457470091384511
-0.0647739927238246,0.15755298901241974,0.09666525474389057,-0.15805760760422835,0.15289988876465926,-0.10846465467696931,0.048357869238766116,-0.30198363474993645,0.262734779039927,0.24290275328791763
0.06342448728714889,-0.19247462908070453,0.0001258455300080481,-0.047580202058038486,0.2083279377361504,0.10032149425097989,-0.22632749401619193,0.13759268697713026,-0.04941598368789123,0.13577134896743673
-0.10346434807696547,-0.26547574796471585,-0.3585607685983763,0.15086576084743966,0.2886085887680478,0.04338829659609312,0.18542230692332387,0.02586965247148397,-0.019909011573986907,0.28436218523485096
-0.11616791620436615,0.102322883615452,-0.186633250623431,0.26335712150413154,-0.09795648895448653,-0.014035341254438862,-0.19220226491046175,-0.025667795584012353,-0.10995376441916908,0.20895523747900818
0.07079575155996685,0.24732797192063424,-0.07985656800390832,-0.187187630026813,-0.056026976886342804,-0.11646096496432388,-0.02253039381688256,-0.294472910688063,-0.1886324653131269,-0.2265252653144565
-0.18938112724383313,0.02979519937200845,-0.06950802559866807,0.1429741569230645,0.29947886542357793,-0.019662091181604946,0.09055894965644046,0.31063063856822,0.15430877728696665,0.2770990649692828
-0.025064188939769035,-0.1594530957866683,-0.12665906875911462,0.2264908208918608,-0.012786198262759367,0.29969479597210985,0.07249251879203368,-0.24055532236422267,-0.013145500738458776,-0.05258312013844755
-0.03859113422585513,0.14920713920172235,0.03451037199528261,-0.26548590794181837,-0.3041071175017744,-0.09287602752551115,0.08119014744672172,0.35155207947740025,-0.02588876060314982,-0.13893761649189118
-0.1498709163651512,-0.11931433278405609,-0.10297774663953277,0.0016052762191584968,0.29534654797176507,0.1694346506155814,-0.16406373765620846,0.23119899153101825,0.31190811507442245,0.32838040957414394
0.1921425805108599,-0.082633258669383,0.1474989901868999,0.02962001559765377,-0.19261171659725587,-0.051467168299572166,-0.3229003282732955,-0.01192233820161169,0.18790117746041793,0.00398067354820978
0.07334632768144819,-0.32419212024722743,0.1661897934602924,0.11288834391215231,-0.12662908553096475,-0.105915267684967,-0.04683901890905207,0.28790566277937235,-0.010795565755307733,-0.09381127765229372
-0.059914399013699625,-0.08527602603456685,-0.09418784267365943,-0.11047674006639818,0.18126271861578944,-0.12512508109816764,-0.030558123150345944,0.14823026075433665,-0.17677008404103414,0.13463652952009392
0.10331807251414112,0.03330205953990366,-0.16426001644528684,0.21525705943529996,-0.3110527391335422,0.30425565589511616,-0.22143568076603196,-0.15894407585961126,0.2055110409315121,-0.2850025552361891
0.10185218496825077,-0.2814710769377163,0.09170349360282687,-0.12353264217315925,0.18418946649555012,-0.04424976792342973,0.13757355944551036,0.23547917109617844,-0.02546442279438077,0.18034512943116376
-0.15361632946877174,0.20051131660784113,0.022012851691668157,0.21258528097578452,0.08817386822621744,-0.005132102963265068,-0.021461924442251406,0.01779836001698775,0.19991493424546888,0.10743168366624857
0.09163042164948312,-0.04865226182174671,0.3028078195138648,-0.20806117528414483,0.06573144060456039,0.1716896071965398,0.23277891867040662,0.0519117014058395,0.27348227117893603,-0.0011575286736020898
-0.11958892244227366,0.027008632172009335,0.046076380964281474,0.1630030000108367,-0.09077732351196062,-0.20375410327362214,-0.01318050954470779,0.17751407596352767,-0.22727471446472278,-0.21902179525864846
-0.23475199701595578,0.33337763793579117,0.11033707778316833,0.11782492830361496,-0.21847376036791438,0.19940025696321032,0.06607018257310387,-0.16800494368984695,0.20270493010697588,-0.18411483583112875
-0.13962774965272468,0.3038908931351275,0.00437222805640799,0.22509181015175264,0.2810896255058701,0.07794783219286913,0.014037456540988218,-0.0714980325182241,0.19783966876584141,0.1308913603844957
-0.18176939315819754,0.31456601031842335,0.1417486928083775,0.1886219628531501,-0.11313663925972856,0.09745606838574121,-0.0024638780404469115,-0.3773578230760986,0.14605187467040467,-0.0514819483140735
0.26592439438976967,-0.22134822644434027,-0.24823368892406453,-0.19416763880950377,0.24701495393852824,0.21802358754518977,-0.13718829174091818,0.14045020891136453,0.16311839763212718,0.334346746194097
-0.03573644080291383,-0.14908602357915138,-0.24738912548061973,-0.168535916524664,-0.11325946950690602,-0.14489244723738204,-0.16512629603057177,-0.06039274606313955,-0.21149203229128521,0.07128383134241018
0.18460680594767515,-0.22038912968907,0.15700128679956887,-0.21657560466150005,0.10086419254571778,-0.0826522650484079,0.21349573340581413,0.27537692446763934,0.09623229369107696,0.20633044181538351
-0.08325140696329424,0.07447235604202398,0.0009094227606997332,0.10270831261666319,-0.2380083065289091,-0.005527139225857658,-0.0817136788115787,0.17708015832886959,0.18772269007685471,0.20214228642897136
0.3668410440130362,-0.26552442648817054,0.021978579636545446,0.21040173211450075,-0.08891018573633555,0.2350281924362295,0.10867151805491805,-0.43826672328741095,0.05864300196735148,-0.2856911183483863
0.1627053914047343,-0.18167797858577514,0.0540303150186565,-0.221822164307443,-0.19691833963180655,0.04690777781907599,-0.13828510777584355,-0.31952371995316936,-0.18290691782662483,-0.2792390384346083
-0.19461921257089004,0.09416116840846138,0.014981849840142341,0.2812559496541525,-0.09881644620002235,-0.10256157409650847,0.2061339708153354,0.04291815832708735,0.0906724932219526,0.026317022426015774
-0.23277570511040382,-0.18458886658570708,-0.24083680129741256,-0.07337623506699743,0.3377724925371457,-0.19499329875283378,-0.0819956032924352,0.11953567316910958,-0.25583676474221373,0.13175781191536842
-0.2228122049691126,0.2763634657621908,0.28816504410882327,0.00694407514197244,-0.28337305196183254,-0.1638695225546999,0.2541200271576714,-0.172941880882832,0.06894293189293792,-0.3326891497237933
0.10691446055441167,0.09804409653640074,0.12590110255988501,0.14523738474637812,-0.08477430352313278,0.073462065672396,-0.15089600705518336,0.29665034425992154,0.3013903829866123,0.14693003076998704
0.05748516495702927,-0.2900331060465407,-0.14936105785938958,-0.07396493426955097,0.10060021185467545,0.01720620300429046,-0.20495608133771315,0.21187879835670437,-0.1441277827921074,0.11617362866194313
0.22787501691193085,-0.0037560593231501273,-0.03247849952969161,0.1470408009917474,-0.0012027017246720223,0.20338472527671803,-0.21473972585307458,0.13537307563814843,0.19531049595976513,0.017177141452628244
-0.22520442354913842,0.056453816415745026,0.037991472626528675,0.20032867677107366,0.08041718546648392,0.3920191194037001,0.1130499192641191,-0.13920307974440968,0.3245963168110214,-0.06850518119647687
-0.26780021148428584,0.1519757421972501,0.18977078132874692,0.15119472692660393,0.14352290613331112,0.04584706614562017,-0.1629701157704667,-0.023432320737367143,-0.269721577301186,-0.06352043303537266
-0.07581904495253766,0.23882558771471607,-0.12748847852213413,-0.18083807934231905,-0.04030131832676268,0.29543405805589185,-0.040824126670795116,-0.32130748429466854,0.18139716876115022,-0.15197276392322162
-0.09028593325733471,-0.24748073935534443,-0.23259839098530236,0.04424476633588324,0.16467859264122123,-0.18547779792757618,-0.17458075419648975,0.4437842952747706,-0.24687834281193025,0.13460588921042516
0.11942622326466745,0.008720929464481511,0.07091177457139512,0.189198106213213,0.13638819038395347,0.1641969044794928,-0.035161444528515044,-0.2885144911175381,0.16479997098936938,0.13791691302387624
0.10647362862932162,-0.24292718501566726,0.07561807639570738,0.05318295278533785,0.13935650332974822,0.25099118221843786,0.23431713151530195,-0.019789549260777292,0.24469931188840685,0.16081196424658709
0.24374737286654577,-0.051644449538349436,-0.16767506071406466,-0.3029228706617775,-0.2617520268615012,-0.03964585596915183,0.2311306865464406,-0.2661677824713223,-0.1378615831282385,-0.22250256136402516
0.22855553466437764,0.0727678291813287,0.11595194666863269,0.20504763072312882,0.0995994350221494,0.26614423379271346,0.030564205647202736,0.22193784505015943,0.2259998844539362,0.20157313365337282
-0.20077143913592513,-0.19859626100684252,-0.1946515637022273,-0.28549286578100547,0.3325271129826545,0.02895431941841006,0.2820591927562248,-0.24576304019237258,0.13911562925444548,0.3062176985512499
-0.17376299967245948,-0.11711939771157993,-0.11514129476135065,-0.014283216337142123,0.2514185184542861,0.2739014874596936,0.2228382541904831,-0.26804892884868065,0.20135296837553185,-0.06975651160518297
0.1298655675526871,0.19963620834185405,-0.33853981953536394,-0.1360784782306642,-0.0017210481954653893,0.2533508376295022,0.20471830845680286,-0.2318460189225458,0.13532486102074315,-0.26013891802675226
0.1668327422906112,-0.2167878874420371,-0.15386478375276993,-0.019824238480312412,-0.0418431743209403,-0.012226056222998067,-0.11031945754721623,-0.05222114936249587,-0.21759691823103697,0.08045651440294095
-0.23170763249382012,0.032536706457790804,-0.09844892172718724,-0.13118805522718482,0.08994906931605527,-0.22744135632536,0.06526995979880143,-0.17314452743882972,-0.21213324726921,-0.22346903387858416
-0.07348531365963208,-0.07761398356795858,-0.27761517523676704,0.1614279915836865,0.02851674898224141,-0.15821984811341439,-0.2838921898117971,0.24097589397598498,-0.17012285603756871,-0.03194625503163656
