0,1,2,3,4,5,6,7,8,9,10,11,12,13,14,15,16,17,18,19,20,21,22,23,24,25,26,27,28,29,30,31,32,33,34,35,36,37,38,39,40,41,42,43,44,45,46,47,48,49,50,51,52,53,54,55,56,57,58,59,60,61,62,63,64,65,66,67,68,69,70,71,72,73,74,75,76,77,78,79,80,81,82,83,84,85,86,87,88,89,90,91,92,93,94,95,96,97,98,99,100,101,102,103,104,105,106,107,108,109,110,111,112,113,114,115,116,117,118,119,120,121,122,123,124,125,126,127,128,129,130,131,132,133,134,135,136,137,138,139,140,141,142,143,144,145,146,147,148,149,150,151,152,153,154,155,156,157,158,159,160,161,162,163,164,165,166,167,168,169,170,171,172,173,174,175,176,177,178,179,180,181,182,183,184,185,186,187,188,189,190,191,192,193,194,195,196,197,198,199,200,201,202,203,204,205,206,207,208,209,210,211,212,213,214,215,216,217,218,219,220,221,222,223,224,225,226,227,228,229,230,231,232,233,234,235,236,237,238,239,240,241,242,243,244,245,246,247,248,249,250,251,252,253,254,255,256,257,258,259,260,261,262,263,264,265,266,267,268,269,270,271,272,273,274,275,276,277,278,279,280,281,282,283,284,285,286,287
-0.006486828450782686,0.04091794995467527,-0.05388345550049269,-0.07730232417171232,0.08120140377048184,-0.08132228011344214,-0.04122158248621306,0.08351506320162153,-0.08434944012064215,-0.039975374910875654,-0.09077984863070292,-0.01617603564990817,-0.07362432867915845,0.0490114887505102,0.09837549479268715,-0.05439698230538455,-0.0007175101246730576,0.004283543449069115,0.00589252809409009,0.006616467245878484,0.02245367995328842,-0.060946872877444616,0.09515261899302793,-0.022996401583459298,0.032839224494216716,0.08460235641020161,0.06714317855977295,-0.047887479127266055,-0.04445400663846403,0.035326426499952664,0.05524402579068059,-0.03097654639826628,0.004958135248302657,0.09674609365606752,-0.055039180716862444,-0.09229881430478616,-0.08444740451170586,-0.028879148609821242,0.09305853831319133,0.032468374304929604,-0.034877577102331254,-0.0009028938344189209,0.005187742862460007,0.09781196585674695,-0.017651538446768963,-0.028610181620103474,0.008708324297375206,-0.03250878834558462,-0.033187772524821905,0.02185553768126107,-0.06348574187195294,0.005276391505183961,0.015101916412013363,0.01295380559937378,0.08965918854353962,0.03928198310932079,-0.07334030966445342,0.03608846565457273,0.07115391004911781,0.04717056615688217,-0.03592154313653868,-0.07188284729888303,0.082027251532982,-0.052732396398342075,-0.08217169507314903,-0.00031226020674136873,-0.07482379316898095,0.06266577350172486,0.008720618110840333,-0.08022317873498222,0.025808514627844423,-0.06645079573985103,-0.029356015211290172,0.04032155553309005,-0.041772924659798476,-0.07889082218244121,-0.0012665265541563526,-0.08290950346878215,0.022731316542637513,0.09357747379580317,-0.05526436148717218,-0.021220676366806114,0.07076926744810393,0.051346656676464555,0.06403504221788484,0.0522293350302983,0.06479550715574904,-0.08811337830269104,0.036256195218570625,-0.08937409433487627,-0.08149489793290346,0.0921630184320865,-0.09549614223364711,0.06515212259690321,0.03825773434602157,-0.07727217652808378,-0.09022124826489664,-0.07448288744300265,0.034510631945810964,-0.028903185079585867,-0.05176641485473656,0.05894426450323394,0.062355812615469845,-0.0368462434335521,0.0895601685200215,0.0850138028925074,-0.03624891464483102,0.020492507523510648,-0.05147299345867933,-0.06305525172387104,-0.0415535756155184,-0.0317017576889656,0.047443497423942896,-0.01729043690290531,0.008380570498112225,0.048900538463343954,-0.031146041958988926,-0.06441923779802379,0.09553144354618107,0.03645785794466092,-0.039285764866767076,0.050710640834015816,-0.09531681715390931,-0.024756428149950768,0.07436737985731615,-0.07035314516372852,-0.08681317826203386,0.08221338960833176,0.01549365158596617,-0.09106369888439136,-0.08212971204031531,-0.0014380060936458122,0.03739369564689944,-0.019391254859180765,0.030271696861125005,-0.06540025539436647,-0.013701288158520276,0.09269668134539609,0.01875956943001952,-0.08363898338636354,0.009790538352229483,-0.06841512463932932,-0.0010485758476468832,-0.060460803597131796,-0.04131361462479251,-0.05359860008054229,0.08931247350393577,0.02075725135193456,-0.048809932964779035,-0.07407486900567353,-0.0018675308025319025,-0.07542486303370441,-0.016099075247786122,-0.05964855523666639,0.05828534048647527,0.06967192624385016,0.09573725350580531,-0.06342459068146405,-0.0765922870982678,-0.07213382580334521,0.07639199481413056,0.01908270421781326,-0.016023966595960882,-0.030176219273658662,0.07199862728732714,-0.02191544911708299,-0.06634657174847074,0.04151165417950662,0.009978809088338722,-0.07717920821071002,0.06974778751087891,-0.03948797814131617,0.05513018580042392,0.05267724045237694,-0.02001859556029951,-0.09756892513903813,-0.047560210555406726,0.08292857495226173,-0.05259494186760043,0.05576698505386068,0.036557307493214064,0.0953087740648864,0.07658842161782672,-0.006355766647127769,-0.08133776296657574,-0.045554405086209275,-0.040235690173892495,-0.08021642839724846,-0.09551615034151867,-0.09694973250460842,-0.07738009878487037,-0.021203636901474265,0.03372344869698573,0.09887493453065689,0.07059751427593366,0.013050238356781202,0.08383143426144575,-0.00856286534467208,0.051830190316500435,0.029737573625006276,-0.0644992441420064,0.052939367142909644,-0.06993784291332979,0.02536751503072337,-0.07551816727811601,0.04058992152087825,-0.008828497536568291,-0.03565222475848822,0.008137469851497313,-0.013964578839924687,-0.0436209135306291,0.022537936226307544,0.05129809105159984,0.007725546978227056,0.02671421292163151,-0.07575410539111116,-0.014297883674596418,0.0013273707736476269,-0.09029387702549657,-0.042438952618936474,-0.012615727518058588,-0.08649971888978436,-0.02662904675550767,-0.0700077294676926,-0.04562051926039696,-0.019388912464496356,0.06419843274273988,0.07717258029161667,-0.07177634584351714,0.09602383242656432,-0.08085221278679351,0.08613521018140749,-0.029015621403027134,-0.08691431059034263,0.07725319513487647,-0.057111857457879,-0.02785023334602045,-0.08456182803046941,0.019748763315499282,0.012953125821156234,-0.08099601919872063,-0.07058458835412305,-0.05388555715948992,0.08682628765832538,-0.03823427187386261,0.09114239607024037,0.08787734015783247,0.03110925763050266,0.08473887267297939,0.0637782500902458,-0.044015049850339216,0.07281689867955976,-0.008817819130880266,-0.0809000956221418,-0.027839051001668617,0.026195626594091834,0.023324785052138614,-0.04237017464071753,-0.0773107139598987,0.011608542570763807,-0.02124577615125566,-0.05839755900543621,-0.027916463345971677,0.013065896143557113,-0.08126921272778574,-0.03115613179314088,-0.06456383694027554,-0.0922117786649313,-0.014726812233208706,-0.05098053762594564,0.045645966478429896,0.041821861298109705,-0.06574155031857525,0.09367314405245133,0.09286459224166892,0.03665082938039935,-0.04055339521872779,0.01887405174476797,0.05734678860342991,-0.011283841989681659,-0.002473248110541511,0.056843477827838815,-0.024696070026556608,-0.044343139400392924,0.061521256093386094,0.038127708968999766,0.07499710913743052,-0.0009445781639553414
-0.05727885655472406,-0.03475187146077032,0.07079056193332793,0.09106261728517356,-0.07392489889340365,-0.0920471753644865,-0.07626540813883376,-0.09995688468148888,-0.09768436269251744,-0.04938467407118307,-0.007652446821682982,0.03572002755133791,0.08365204251110464,-0.01188069584301044,-0.008915910352897446,0.07177152886795836,-0.09659269002937074,-0.060200682205558874,-0.027658115631557963,0.03580361589266752,-0.004205193915936073,-0.026211946283315732,-0.055525068998210775,0.026969075896871572,0.046937172891831934,-0.0272396223719138,-0.006588448548452775,-0.009544451884996872,0.06946470027113587,-0.0995255590475471,0.04796821882405562,-0.049921850533882574,0.09252324394718597,-0.06407800591114354,-0.03396922232876759,0.08868225397911268,0.08355143687274831,-0.031141278868348003,0.03326978109717086,-0.09842615132113061,0.07022599610753125,-0.014332660291118281,-0.014181689820309635,-0.018335393035828575,-0.06522990520671902,-0.04198257301735712,0.08664739631873648,-0.0646135040836237,0.06815142812149502,0.09976252010502067,0.016113018417392298,0.06934729431962665,0.09791930089303477,0.043168646293903414,0.017158324986622404,-0.04609585040766743,-0.08575731649157436,-0.04889964215792414,0.02983079994737423,-0.044255839060151604,-0.09516396847435063,0.08454457326460692,-0.018701784201640186,0.006404124953479224,-0.06218320907868572,-0.037705538246911315,0.09492282772139296,-0.0021791396032428026,-0.05222759308444996,-0.08108966859075306,-0.09047697334504567,-0.0636703051327346,-0.06191414408846781,0.09093298859312073,0.05979415676673143,0.058495800248054744,-0.08062987912102627,0.05399413723649675,-0.057414239483566124,0.04555347044030509,0.03639374047024557,0.03218907474874067,-0.033542307172355804,-0.0020496605020075796,0.003369351012831799,0.07251590405829697,-0.058585852798666654,0.09682692294803545,0.05379680220524641,-0.06574975657093503,0.07675374956017508,0.051859148399234264,0.08983366653328972,-0.06306826624768518,0.05314636854928753,0.032641733338241774,0.09336548721687588,0.08948020958981899,0.02669010333640129,-0.05886810334070018,0.04478233934051163,0.08316372816569122,0.048632333573491615,-0.00652224283634509,-0.09861699919407613,-0.021484184630688654,0.06136533422613592,0.0759794109712382,-0.09472880772368508,-0.025790294655185387,-0.09384148655320289,-0.09492826317682032,-0.040989221593619146,0.008643232805974321,0.048848538288596755,0.08195268819346847,0.08322645307869916,0.05041806340041099,-0.0560045975810339,-0.09373163168659421,-0.00743131159305358,-0.06346386500942837,0.02206365078210417,0.0688413818991286,-0.02190942612088327,0.05060729095240153,0.050229817006296,0.08700648970920877,0.09335292649701779,0.09216855634035104,-0.005405555478985612,0.004149594931914696,0.03471187842899928,-0.05623485050642096,-0.03906198694876007,0.03497703561422642,0.08585159520705556,0.07810813436382592,0.09668397837352805,0.03482663491691028,0.07606286502709146,0.0942070603577928,-0.007465936234616492,-0.034021769557015316,-0.02851691370406168,0.021771925478218424,0.02039250526877192,-0.0518234598969385,-0.018524038474923624,-0.07535748762570926,0.011765172727920905,0.029995244509774404,-0.09563871773054608,-0.008785112140437569,-0.0066135054587089445,-0.06152718257884765,0.0901034997869203,-0.03180264528037614,-0.06795333190536254,-0.05949579545527782,-0.022973109906379133,-0.09751301184673011,-0.0024202172013069317,-0.032302326925895186,-0.024222334956920624,0.02151739847622433,-0.005480950412849409,-0.07494376210505636,0.060571666084278546,-0.03859326880342533,0.08819552650168819,0.02364069320316213,-0.00908592460690158,0.03432306631473189,-0.018684821217469897,0.03734277164225262,-0.08010396873295697,0.0246035298282656,0.04954448974763749,-0.06497274500759198,-0.08702968496331885,0.05491993899849064,0.035346872646413834,0.09100495156249488,-0.021322333458261556,0.07940805466518044,0.0697661719792094,0.05244952698835888,-0.03124490468697217,0.036500523624581054,-0.0427195580196474,0.06406684643868726,0.09142221201352697,-0.08874975573929234,0.046901955977941216,-0.042396388025575285,0.04801869754162145,-0.011529597203117045,0.021951074848206423,-0.05281710652247877,-0.09281412860595277,0.035201276050718835,-0.022311899615319396,-0.026576936402790685,-0.044785996901338984,0.09397096048597141,-0.04960188786564213,0.08009766017596177,0.049180480778875775,0.03145699594747792,-0.05524513999359618,0.01345472423848618,0.04588457222561896,-0.009275530377801154,0.03132888905745097,-0.01367061367079713,0.046764714467361426,-0.019103160049400266,-0.06097623904021135,0.024839246825545,0.0341110463121622,-0.03508941866081779,0.07238742598846301,0.07776709096179474,0.09267197207881314,0.03332316041656033,-0.031497206786765805,0.04013734693314365,0.08699008173012368,0.0545864893136854,-0.016179648378680102,0.0552219825385173,0.025875647578304507,0.09024614501943334,0.03171428145065919,0.01566087850733757,0.07449104033014356,-0.0033193133878315485,-0.0522722819406833,-0.032651776017424805,0.0342345829414785,-0.07459642260778811,0.03088183267533159,0.09768273467170639,0.05689600359000509,0.03912510034168139,0.0011187474126178678,0.0764630595825268,-0.0866417990795983,-0.05291223579569863,-0.09572596749969935,-0.05043927319336481,0.008266927004206264,-0.04947517427499593,0.059119627160764264,-0.025118157810047725,0.001882474425906955,-0.0874880075630094,-0.043911254290523664,0.08001181781418039,-0.03373751563263166,-0.056650441923152446,0.022261912921546886,-0.04432808097267719,-0.052995667139240296,0.006568352378573706,-0.05777381185554893,0.001408099060337839,0.07174621647558257,-0.06437126806530723,0.0025594750589987736,-0.02848516394676395,-0.06649200101452653,-0.03355831314908556,0.021656039307619727,-0.00836671237621057,0.05960980339410966,0.015951917564601622,-0.04834035507054416,-0.014065119785140181,0.059090701656970515,-0.06136615107358658,-0.005557986914330064,0.05555267935430404,-0.016254986210300575,0.07643312341472588,0.08332027922461525,0.01831622381598906
-0.04569306666885563,0.014890009533975566,0.05256283956308794,-0.081599662051111,0.09528660949547822,-0.05937365325639725,-0.08618947867922573,-0.014288541981698596,-0.0696353345757988,0.05236628953156058,-0.08841163981985024,-0.0905880513035207,-0.060175012693566926,0.00968692785422842,0.02761844096354211,-0.0126275100493741,0.029441347630815677,0.04940422344690227,-0.04060875580966552,0.0009408260406651182,-0.008015131408110781,-0.017794399197570997,-0.06661778736332985,-0.09067844350197858,-0.08806923287535479,0.0345956207147067,-0.07801044828174515,0.09647899898790437,0.03092118819958716,0.07621218685978452,0.07978269933629083,-0.09822594147517405,-0.01976143401694843,0.049220350418496234,0.062444893047581836,-0.06779934575729823,0.07029552502570036,0.08536510516107099,-0.012659126038020767,-0.03208686479953074,0.07855135319694044,-0.08348248614421996,0.03815105500541049,0.08901988443321847,-0.03144136310984854,0.09164289049945797,-0.08544445279284725,-0.036181506581026604,-0.08882962230828517,-0.09976776032029858,0.038748338700138975,0.08101747420416908,0.018688193383862406,-0.030886549339142397,0.0326113705940042,-0.04546041580595036,-0.07836677813475607,0.07893919642984105,0.07961587843748862,0.004850505316761309,0.0036381648662475656,-0.09275107830371887,0.09320275758426709,-0.06311891635645839,0.08508558747366787,-0.013977599126980976,-0.08331787542070199,0.021626701788710692,-0.09365845302842561,-0.09248079910305088,-0.09584106230114332,-0.061380494483040955,0.02730023065535046,0.06975993801371876,0.030054932939744483,-0.023071905128836452,0.054357079069038035,0.03259027180383819,0.02486693174013053,0.02747902462279917,-0.04472058472193008,-0.09533904942103202,0.046094783224461866,-0.07195787761406464,0.05489200649131967,-0.011101688826154229,0.017703426072159318,0.042329811331121556,-0.07833575499710524,0.07291709258583355,0.0024064569236199713,0.021568763948417943,-0.055362571728876486,-0.04264113927765256,0.09503417643786687,0.08598973224921608,0.015754914190248725,-0.05293031761139927,0.07672820285697296,0.01699419419856002,-0.05690336244204604,0.05743336920353098,0.026164857061014058,0.00504903418353965,0.021504957947297256,-0.016711887600109183,-0.0022741938193084374,-0.048283111307696545,0.032389632286333875,0.027772993132867522,-0.04416501006323862,0.07728100168037491,0.09242113744556957,-0.071429574150221,-0.06545306004501199,5.985288433414179e-05,0.09349244109261487,0.061458133959844646,-0.04657988954024831,0.032991506845444094,-0.06214446017540213,0.04643823815220281,-0.05420075322480672,-0.016016581367996857,0.07220947741856586,-0.04156478971084208,-0.013256605509701643,0.022026473224223127,0.005332448805437122,0.0628712891450017,-0.009188941601616636,-0.01187237819503788,-0.03567041618622349,-0.036324792426279735,-0.07133057916469748,-0.05258574449817512,0.022581749263666226,0.011335779355421093,-0.037337992670990125,0.015243975769430805,0.07416977805266643,0.029301032574336874,-0.09677950951030294,-0.02323090271896017,-0.05652206728092941,0.024499233000243335,0.06525301629030077,0.05299262290907499,0.020775567993363775,-0.05898507398056935,0.023140285912171866,-0.011064630032377329,-0.05122484060738534,0.04145972309643457,-0.07198003966231953,0.08544815610999555,0.016535255886296552,0.051573066521086994,0.0059894158743368005,-0.07838253241032021,0.08036629744590865,-0.08761478075527501,0.07539521028271308,-0.004767640548530237,-0.050151215874378534,-0.00859831477197791,0.0017791348240245525,0.005214024324893464,-0.09373028181682094,0.06521248886240745,-0.09091308401819578,-0.09892641533935002,-0.047919968753157356,0.0759284102144889,-0.03855393994151332,0.057663303748222934,-0.0613469442925851,-0.005319200074424648,0.09321562511425224,0.09411944448809663,-0.04522326092574044,0.021394228902035475,0.02445833365999837,0.07866667467545117,-0.037731563850480286,0.07890544182479481,0.05475377336458057,-0.010193388914907769,-0.06530490289010495,-0.03386727450451693,0.07851300832203861,0.019369591468912643,-0.0045086627410041,0.013887140239090108,0.09815811335548259,-0.01811188980511494,-0.04354890076813816,0.07383798811455534,-0.02730075846838323,0.04953294972644249,0.031207624227351915,-0.0009992655395760998,0.04104125901044281,0.08595425628247036,-0.036795077699852796,-0.0438036724696047,-0.07836701993649954,-0.05734465874506856,0.006643158554519262,0.06154362004056416,0.07239459361191891,-0.07583975845165768,-0.04949255277779711,0.06869956236650164,0.0642892863024826,0.018483473618270782,-0.05088203100403663,-0.08225232304962697,0.0994975781504057,0.020809225684688737,0.07406462803064191,0.014796179199151513,-0.09058758542654013,-0.07642606376801717,0.0014296904796507097,0.037080566725984004,0.017026551975526733,-0.04110573260810575,-0.054455777035252145,-0.043601235644105625,-0.05684040776612135,0.0058606301566671085,-0.015909499021211145,-0.03427707239131707,-0.03450358148897152,0.05931316064775858,-0.09743446145171598,0.06815678908780026,-0.07851274109711616,0.0386294596081465,-0.040843913398902136,0.05778666189961687,-0.019464982545536472,0.053407452050962215,-0.049336804338551546,-0.016751205917961462,-0.03830855886488561,-0.05914766065971133,-0.0768376167870735,0.05260413630365854,-0.03132351050328419,0.050347315245561124,0.09795160091752192,-0.047202674741049507,-0.06954655333939927,-0.005021502237029948,-0.008739331032385559,0.03681430745391095,-0.09279209932554587,0.03799452515652523,-0.07237225041215534,0.03069370392350681,0.026998343089667746,-0.0371407907572444,0.03136546872792708,0.060375581520006015,-0.07418483025450726,-0.07564449440195828,-0.0028435022323131864,-0.010962353726314811,0.06908966303820163,-0.033568147104201265,0.0422979693094985,-0.09290159327279372,-0.09664189305672434,0.010552144919183366,-0.08529806101370095,-0.08175614370305083,-0.055779073520272615,0.020686754457849676,0.08864915533309846,0.08318186127183343,0.01243972909483423,0.07265631357089535,-0.0976633340125809,-0.07606452882000797,0.05828146914668875,-0.040858959930525046
-0.06264293282735287,-0.011619817575814156,-0.09424199858700685,-0.09341269460513307,-0.04813900956977225,-0.06212115719591523,0.05868985239946849,0.04600635710425218,-0.060715380666149905,-0.022960646031750097,0.09821969239146493,-0.08966307134607591,0.06282041656008351,0.09816696013128418,0.0005984132556120878,0.060264121203697764,-0.02305723284980359,0.01590501745333314,0.09441384180360858,-0.007815460412126636,-0.0944136371096608,0.08278849457072454,-0.05922926608842035,0.056572265066684224,0.03418713773669267,-0.030429571955894255,-0.08419214867647772,0.08809033468934738,-0.08012077262104052,0.058337243794351526,-0.009571385005993274,0.0859429398612918,-0.015660127092833813,0.05663464926804827,-0.02505945525101605,0.04365748204488428,-0.08941108916598887,-0.0024338535061996583,0.028482742752565102,-0.011719795554339133,-0.013205832905827851,-0.008016554763289184,0.0995273085863709,-0.09046500025930498,0.042348107798479966,0.05251897419306361,0.0791869191873465,0.060467782960636526,-0.045294154487355374,-0.05081356485623231,0.0060661769950726314,0.05613741795117978,-0.00492522987317238,0.01932514583674091,0.014374593839958713,0.013922925626680804,-0.03746466360013904,-0.09316745342618303,-0.0705361280992641,-0.06355020739711145,-0.09850567173870697,0.05122499856061392,0.05275922211991221,-0.08431771109196151,0.05048635625673558,0.08371376434190717,0.05765368359486967,0.05357316526690045,0.01857996096917567,-0.07700257143136705,0.020602815920369746,0.009926297372993715,0.027969682640360684,0.09693118389112015,0.059885327869543016,0.04823801131442728,0.01033767538251703,-0.02859939728206741,-0.028324524732811246,-0.06017248074703927,-0.027150927170339453,-0.021740310308250927,-0.047402851597444784,0.04167558716408263,0.051936597492096004,-0.05013012008823197,0.08244269501585505,0.04099915893660679,0.04470571216371536,-0.016763433084958174,-0.0760546611276442,-0.05092164375109667,-0.0010944166311017726,0.04711910676959171,0.07335625926772962,0.03954295066193476,0.06799496806281938,-0.011702876588315349,-0.07708457283763032,-0.0362753075322553,0.029845696083573257,0.09622901745746677,-0.04617764064347364,0.01900066197196154,-0.08591472820287187,-0.013309211259234035,0.019522015856111376,-0.04249933452290998,0.09239985507958813,-0.002936833115417218,-0.05252410160607266,0.0783571840526362,-0.026679553338846904,0.0056714497509477305,0.03029231053196344,-0.038177948388891325,0.08382525505558706,0.002283031480058274,0.09865492446926624,0.05709830617702878,0.013574538444557594,0.09165304173074759,0.03092820753369016,-0.027310903239978392,-0.06249377618252658,-0.020034796600264956,-0.011411501121541111,-0.04244670044044363,-0.027015328025314974,-0.08309873680774771,-0.005546302061213299,-0.08946869025600834,-0.07080928943134845,-0.09793428415838137,-0.010662434387775881,0.026303267951847356,0.07189910966776095,-0.06378674058502885,-0.02286979157162882,0.08654730608398786,0.028948628189757537,-0.09342825848417025,-0.047428201573964775,-0.0526281100222765,0.05471907240975892,-0.0073741696020719165,-0.06815247542303522,0.050898457018392906,0.09198415873081801,-0.006424210627249978,0.07984827757984679,-0.09232806014147545,-0.004699354582589732,-0.003579963707656208,-0.04055343834286223,0.06398946664054622,-0.056111279026966276,0.030846975920376885,0.06836833190112171,-0.019634181633656884,0.08628720652127121,0.018800543751093177,0.08957807357369536,0.015926802982576,0.016292917805709024,0.05138334019523051,0.059121191600980866,-0.09806476420777618,0.0211637931257095,-0.07252924848523996,0.03193462029095239,-0.07681253097329307,0.03176150954877039,0.025780210701978033,-0.06461020992015858,-0.0592101658111719,-0.06725598512935865,0.014375858327891598,0.006209816613742708,-0.019224451750295742,-0.07814697634846024,-0.06779282146564214,0.09114051709119432,0.07702873405197676,-0.07186075992481261,-0.08687088780856747,0.009858372798687329,-0.08158266564951308,0.017153048350369366,-0.039766732135678544,-0.08657504962575686,-0.05888788505846293,0.07282702805879984,0.030425877981468147,0.0002696393332127009,0.04764952556783216,0.044794349394327734,0.08623548279169116,0.05393996926621967,-0.048808315436778486,-0.03407639880507483,-0.03727347311632146,0.008506669490199152,0.09797021300230643,-0.017367303783654,0.03101538862383451,0.01682333839856518,-0.09979236122069136,0.06638053890815768,-0.005469964096292243,0.038566116265679636,-0.014099322466693513,0.06003732460684481,0.04615389120841534,0.012582858471041519,-0.04424434721824462,0.00873699276546385,-0.0509962552412798,-0.028684944698021617,-0.03423125402072916,0.06334610351584194,0.07135540731042761,0.04121328791129677,0.01764111012865228,-0.03937407470919364,0.09022148451432957,0.08150825409234999,-0.0484241795824131,-0.02260417566068273,-0.077566390709046,0.04318735776005691,0.025788041349683037,-0.022444926329092323,-0.010726997389148635,0.09424715746682438,0.02220373888914107,-0.056752276200992505,-0.08039667916491017,0.06930346656711137,-0.011759415556098114,-0.034233061123605656,-0.06776733354693584,0.06036018903351095,-0.06237409552565199,0.005181811959310223,0.05330658415123157,0.0044778363064249425,0.02172599394244357,0.027265011736987508,0.03716988302713847,-0.07497316997599052,0.055397310771493735,-0.05737594578769401,-0.09008388857798831,-0.07458252024970573,-0.037832078345789576,-0.024646270081956585,0.007327705753688624,-0.06663567769877776,0.03332559113517219,0.06071913516678947,0.020432148821943854,0.051019426729408374,0.0622047484149108,0.039531306950512664,0.009258901006163769,-0.040761964498151816,-0.06434209081321408,0.09455540276591931,0.020213875479471333,0.04794775754058974,-0.07131257723780933,0.09367715977831524,-0.07488519694688896,0.07809525376728124,-0.07367263102458521,-0.08090110919840678,2.2114038048724587e-06,0.03134538629098744,0.029329791003165417,0.08809307958996684,0.05095714548867946,0.07009795722789124,-0.018473553890887805,0.08092294468379733,-0.0012801440630602374,0.016372685223895945,0.06357376940287389
-0.060418138152081684,0.006491623998026588,0.06717698360203243,0.06091711010532944,0.08381015268338059,0.06372107385990336,-0.08348154132672862,0.019364193378832488,-0.01316453517512554,-0.08973424637321215,-0.0631103093161016,-0.053121882291254745,0.061919804985681406,0.006450310578038114,0.07605167606775282,0.07786619665559254,0.06721942535066125,-0.07434814657626926,0.07402265525651522,0.06156634314269212,-0.06045928457747704,0.032711130948408246,0.03847355399954663,0.014664173507033784,0.012590942759452826,-0.06815240613190474,0.005587903864552116,0.012737841368254376,0.005008317161174707,0.04513466195448716,-0.03327323844758061,0.06869380335613955,0.060821062617501885,-0.0270631703133342,0.03324148367778017,0.013613780861450386,-0.08553032276530424,-0.06477091395110358,0.02961248729354698,0.07297741458983187,0.031596037933060685,0.06702187693775793,-0.003121016976143572,-0.0046977200117345455,0.008605002335180092,0.08371847704549461,-0.07129448234559387,-0.051725615242764256,-0.01766952991533845,-0.08384177379195777,-0.09872762511051425,0.015145042137766953,0.07020958631060287,-0.07952618288660215,-0.04316071789376059,-0.07184860951425905,0.0451581661547988,-0.0384928545206588,0.08134714711400326,0.0337027216013475,0.06877222964887332,0.09596634103591127,0.07395461409475519,-0.05178722346977429,-0.07802137559220132,0.05585455298972711,0.0880977582017987,-0.0476443860572641,-0.035609368573863244,0.021394519737879484,0.08430428760267776,-0.012943858451751288,-0.04171039991813615,-0.040962611112565245,0.036544559309423595,0.06043632500950995,-0.024352639568086837,0.07784012133515357,0.025554472922050268,0.026639139494907982,-0.020133470264473527,0.030964309195912663,0.038239710049421095,-0.019269840005383804,-0.01131742958969414,0.08458543297765157,-0.09131784721767021,0.04489359880349769,0.0972657516925704,-0.0831934087423905,0.005530171218112394,0.06967260321466986,-0.05828360875462879,-0.059534820802835196,-0.06580804609408411,0.07960000099389827,-0.06280449892821674,0.012759433473827814,-0.04326442420616826,-0.030128369272339337,-0.021942287796155126,-0.07889092071144971,-0.021368065255795828,0.0021160343419010766,-0.07635364161158449,-0.07972550727538065,-0.020073950129035654,0.02698086602539464,0.09998553410292149,-0.06007548770144759,-0.06320971128163862,-0.04039522073330316,0.0010459971001789323,0.04362661269603742,-0.08401944583316776,0.02452022556213723,-0.044505567952061044,-0.09271060130511531,0.04354072781878657,-0.07722085158007926,0.058615480477877395,-0.09865443200251721,0.0715757029281641,-0.05695359701273193,0.06824604781061255,-0.06796145820812906,0.05323753521656678,0.011342615895095933,-0.07187342789750338,-0.05803075799122646,-0.08069414358164996,-0.048245839274483414,0.0683591391733217,-0.09522274864789297,-0.08998118646516666,0.059794728350958046,0.09427059483157264,0.043197690715062,-0.06353390848522299,0.06342109172183315,0.09263084821222851,0.07099578909550325,0.07065551147571103,-0.002628099458517545,0.06014438308754375,0.09695409920261117,0.04152678696348974,0.07741659462008986,0.09777519097297974,0.01993335041697974,0.002070714763669885,-0.09651579691570471,0.09591262304484661,0.0722525873802053,0.0897903784493022,-0.014024166461062219,-0.04562407820388027,0.05310288475014132,-0.032913185651443355,0.060524590363924595,-0.007760504369511213,-0.004434324800698345,-0.080701334991055,0.0025512099617418203,-0.09640581540860992,0.02490122104720437,-0.07480564393535477,0.04341748590916005,0.08066672086056983,-0.07535113442090438,0.05590824886870634,-0.042121298372522174,0.08269211797378226,-0.014616299025065487,0.0685324356217942,-0.040071420408494096,0.02565750726494792,0.08267077873645483,0.020807657926792178,0.05560365061533323,0.06129095617217592,-0.06127900812140749,0.017716414071816764,-0.078766464201248,-0.022774499253041404,-0.09106732872695959,-0.06338870159813886,0.01892922501524432,-0.018673450644054828,-0.04116596737660292,-0.04076226483533009,-0.06549066563131313,-0.06767906078016725,0.08655186483045944,0.048744647434299626,-0.049492607174441185,0.008602829282707473,0.050858196813483025,0.07205068049930564,0.08987210942822457,0.05647972972058182,0.022172020002115198,0.0018499774000304238,-0.09170609801561218,-0.03895268939760276,-0.03672489304061344,-0.08294395572072812,-0.028627201795656462,0.02726018568373022,0.044250327074378475,0.04261449660710009,-0.09272714979273416,-0.08521750495036406,0.08567109914752101,-0.05657702091750426,0.08001707437600492,0.013316004809361789,0.0029201080410163342,0.03434301675516544,-0.02739324924762641,-0.049541398883474766,0.08330859480302207,-0.054521306609473005,0.06667118328438466,0.026599261920277697,-0.03966168496365523,-0.08392104067390303,0.04831817662210456,0.026845601984113995,0.09892454283729424,0.028059795199364464,-0.07513837760497097,0.029556941168967035,0.02867450966976467,-0.0010109350268310802,0.020011741984160055,0.05602611981541575,0.029464174089053646,0.04750504207912179,0.046057255616061964,-0.014221378339491482,-0.02747107685443482,0.0913795727296051,0.08797920385800678,0.06901791913653488,-0.04668549864978639,0.07649031344269716,-0.027213366984989072,-0.0604161201355641,0.02453018905549425,-0.0013809396450212494,0.09379538055671162,-0.055190648979235195,0.012533615006069622,-0.007626711948688145,-0.03848850156720415,-0.028179865939422122,-0.017243295069366758,0.05010605745075424,-0.04409522963111822,-0.04622717882945294,0.059354150484439934,-0.03602685218429239,0.018409519507306283,0.016314774288563053,0.023049832866321483,-0.036054376600533226,-0.02256933450461904,0.013677292865847322,-0.0517445765564173,-0.04777463293320022,-0.08793723163939203,0.01173893683210329,0.005709485729227867,-0.02825034910252103,-0.037534331290256275,0.09440739712406344,0.036496491129498494,-0.0811871290389649,0.03423359879435472,0.04966613668875188,-0.03281292781631899,-0.07119432716203854,-0.026579642115308385,-0.024943763873096776,-0.07636837948391975,-0.0029953325579687214,0.06034226455682686
0.058351942108660314,-0.06965882858698315,-0.03732560764563588,-0.09326643601526552,0.08564424866793569,0.02137278837424224,0.06837617754675991,0.016432910314502475,0.07120652589245458,0.06117415094249169,-0.05538700400565785,-0.043868504776239305,-0.038881744581767796,-0.020064024464112915,-0.05824048458610799,0.0954752783249185,-0.06219491092286948,0.07289918920856622,0.03457231136461583,-0.024572019925198547,0.03079825502635385,0.05382747769597046,-0.08162382733539603,0.010145523643188725,0.01620333629958802,-0.001940722324597125,0.014325880756297683,-0.060305780348819754,-0.004210643173386237,-0.03862062463620627,0.05071091855237539,-0.08279105462959187,-0.013403477680394528,-0.0696691305900726,-0.011055222020896822,0.001862616562955184,-0.028532456485637583,0.08617834700259373,0.07864732029196833,-0.05128224040948097,-0.08852699031224687,-0.005118337397733401,-0.0586279054837022,0.07576681193486391,0.07891014126604914,-0.08355695352750529,0.006967540100555068,-0.04548696042972969,0.06481112600514169,0.054806000759149806,-0.0748066689434992,0.023520673110100032,-0.0351947676196731,0.08344147265889892,-0.05316978267208811,-0.04546906181912197,-0.03579398590579893,0.05850066138721323,0.010195650780997458,0.09129114983833003,0.003594002573540149,-0.04252523951854266,-0.07629058218106609,-0.04782781911367313,0.03281536314489415,0.08106445354405785,-0.07706528943272908,0.0891305350600693,-0.07866748641349466,0.05768593954166552,0.04194196176462936,-0.09761858320101385,-0.04471335225804957,-0.0012379395446050333,0.0021721563545132904,-0.031290441863849994,0.027199807033097007,-0.04390784306978528,0.09434881088756687,-8.037439941479297e-05,-0.07881650842484812,-0.0891394842630068,-0.015686842213785294,-0.04166194939180287,0.08499835081767435,-0.09697138935098225,-0.06965392541889855,-0.03570903363201114,0.09014232778634963,-0.04537611292503215,0.08892836094588609,0.01806343767979313,-0.0025591331016409486,0.02026955455691047,0.09917859101766262,-0.04724447168041063,0.09655677995693013,-0.09824298044516185,-0.05510866961847005,0.08301151657570927,-0.04229972960473731,-0.05021174032435949,-0.0076858342231093165,-0.02946554912493656,0.06678261044104845,-0.02433033388605735,-0.05234623764198462,-0.07669158481578638,0.02474403771456144,0.0505950048316249,0.07971314747948735,0.04815314612201267,-0.08350185363179491,-0.007588020053538787,-0.09311326252479747,-0.04867765245492055,0.015136419027642324,-0.029673281683875785,-0.0817829512507566,0.06077018657931928,0.08743618140287539,-0.09466408614635109,0.058372287781999946,-0.08938199039347403,-0.02714846402956793,0.03279350770562924,0.027814107652797033,-0.0038193790300932963,0.0005858435145326999,-0.023090737420197533,0.03721784913303226,-0.07205411586339552,-0.09911518949115787,0.025602562609177686,0.030063149716157058,-0.02628370685461581,0.08815090007958688,-0.023693230133907492,0.02915196987397503,-0.058455934375735284,-0.0428704745959061,-0.07756604899132705,-0.06674139701054506,0.005770690779528796,0.09966612929996929,-0.05427395725647245,0.09621477918538622,0.06091200294057485,-0.025237045107827157,-0.07218321592443197,-0.028107610243493696,0.09149623966251608,-0.04225552937755853,0.08747459103504589,0.04786305047387538,-0.05393166702053195,0.08324583069374265,0.004753466448471503,-0.04476528040733593,-0.026836274498483508,-0.02916869276974963,-0.04333589368728299,-0.05083705904842774,-0.04862580053197187,-0.07711898307132328,-0.08779689978830152,-0.024901450806084826,0.06361526234418251,-0.08386197462315254,0.018145375344671286,-0.08715967480594228,-0.017401852275255168,-0.008798430795192165,-0.04658098744355228,0.07971237086963144,0.07867595579344311,-0.005990985034090723,-0.07221240768197,0.07246599947815803,-0.09880372921292056,-0.04632090429478912,-0.027140508245101627,0.018090748159381012,-0.057367188724631965,-0.07712098669495074,0.06453276695681003,-0.02785347023921967,0.02359081724714633,-0.06858995290691323,0.04357783504744662,-0.05884847741117217,-0.03555201945932775,-0.07506060422352623,-0.027800775948433464,-0.09363818346771555,0.018823478171783578,0.03733697211495389,0.07565820069596965,-0.06883705611985184,-0.039651847033869037,4.363594058604457e-06,-0.027904955667287033,-0.07303641579849951,-0.037729223095480414,0.08900918404312792,-0.05941116214548875,-0.024131149697512077,0.026248977042681445,-0.019695582365184112,0.0788866435167879,-0.061837007147855304,-0.0026021881911862423,0.06140898636626053,-0.04100223082381704,0.010655091629004975,-0.03284024932404839,-0.0855644279454117,-0.043275102954978675,0.03379530045127252,0.008307096515056215,-0.05405610251551061,0.08292084621149808,0.002067553339461511,0.0041085966725714846,-0.060388674451043865,0.05359381146955517,0.06563497851507344,0.04283402189913357,0.027620522268235803,-0.06752721697662468,-0.0010673191275259516,-0.06152322429278763,0.0884030781500201,0.043612983752305115,-0.022992895925928597,0.06337469302101535,-0.09290616568799792,-0.07683072987183065,-0.07786540421430709,-0.05913287857228729,0.01350769874044953,0.08306722461031714,0.09386510743409476,-0.07833633717430132,0.04929996974375792,-0.017509557415691192,-0.018818336166373042,0.07009612790075474,0.07753992937250476,0.0528837843203514,0.05734589047900165,0.06479585470713117,0.03810545278040214,-0.08227754054299122,0.056376380512822934,0.050976140682217855,-0.06413749626363244,-0.06855543555270306,0.006993658944469978,-0.01548994126029929,-0.06367596000266268,0.0008324510611792148,-0.02479267300515316,-0.013415176478672686,0.03920406328267189,-0.01708662038681256,-0.03743646364648199,0.011694130826190868,0.008948015788678727,0.06669558663441051,0.0580744916128907,-0.08916434181048732,0.08408291203245612,0.0957065467402549,0.0012342776653503826,0.06062486234482224,-0.09775674005050629,0.07587778914947697,-0.07881021129022886,-0.07957492121876415,-0.08968933858137251,-0.07703467148323809,0.09616626076183885,-0.04040578573219386,-0.07691784961431342,0.039641949850824684,0.012725400335889873,0.09051377936115856
0.027449702787048284,0.06118595378092463,0.07689250368948154,0.016251076354224063,0.03374300952551818,0.05927576101989116,-0.06092632358237792,0.012166090834559787,-0.0054886514750196016,-0.06882485090554358,-0.07361541845368193,0.050037624757680345,-0.05032375287466455,0.09695636491438694,0.04940383853040966,0.05205845864805755,0.03150155149542286,0.09259248533794871,-0.018814485446370235,0.07748476528573064,0.022628249042103307,-0.08363852147844979,-0.05082994829760146,0.003468393106522988,-0.09815394989086085,0.07876039175141167,-0.03979918380512447,0.025565240157563833,-0.09048548684129541,-0.03193105477485476,0.04223682255602051,0.007274386696196526,0.07784444533326779,-0.07067092699265898,0.010271537183995089,-0.04616035319553678,0.03302934133405833,-0.01686491844192661,0.05466714037680963,0.015571660251128376,-0.07351733481832196,0.021049261520332884,-0.019891962993115825,-0.03457902228082925,-0.047767284646696224,0.0895220847240169,0.09005803267934957,0.08136730497401976,0.06767251212585797,-0.08010829565021595,0.07192605295410955,0.039324295723481534,-0.031343557461849164,0.0969684201035637,-0.019959717436641915,-0.05632072293632042,-0.08014336619535924,-0.0758497815082665,0.017332475750519518,-0.0716333633785671,-0.06488574596481897,0.06676037056041444,0.03227254183797723,-0.09004487819388991,-0.0448535269216384,0.04053378795535357,0.09594965967344407,-0.008569648869983997,0.012009036756117484,0.026039521966698988,0.09326750838786603,0.03555027906343051,-0.05075928772607231,0.06740122182936281,0.083763605307346,0.017943931317859017,0.04267109948889597,-0.039616163071843784,0.013913925987093336,0.06736766184736853,-0.04632114046934457,-0.03815468619509,-0.015934614065448348,-0.09029913428285699,0.02707338276666991,-0.006736369900130897,-0.07454675249121619,0.056577154387365325,-0.050477152269076696,-0.04083421949982486,-0.09835842877441475,-0.050336075253683214,0.0404894004397586,-0.03908331207530287,-0.07657905521940346,-0.0031822209499229185,0.04045952022886589,-0.06750294106233859,-0.04132494838413965,-0.023516083150179706,-0.06939588350336091,0.030293442378542517,0.09977883072891834,0.02087425283226396,-0.07472534453750235,-0.0946665408415417,-0.03924620094760647,-0.08850145989017555,-0.06213815832053526,-0.024538161170283554,0.07920886140691989,0.07626978755166038,0.04864201526054273,-0.06481845846684617,0.033721697131317355,-0.026088482852559047,0.06521795977415994,0.03538718044451083,-0.03207661617928455,0.010692689404400236,0.017025131746417108,-0.08646249100323679,-0.0015111504189315803,0.06287482637893001,0.04119734786595174,-0.08412172921299726,-0.09972895125842396,-0.005936174045911289,-0.012372352200313191,0.037894656376581286,-0.08601445171058272,-0.05319568079046334,0.0023597699738204018,-0.0501784330705385,-0.07589182530359966,-0.007894083529698838,-0.05971490505162168,-0.018994531582693812,-0.04879239880707887,-0.06708692175182697,0.030295092891620037,0.03174026836113049,-0.052259612463820646,-0.05248571940560629,0.019293603318730014,-0.06465240277315672,0.030343022046704974,-0.08397383002125305,0.05443905093653606,-0.02934645496992352,-0.06738096520040619,0.027021460163431283,0.03685996063210251,-0.08393884378721612,0.00555260744852866,0.052405219880381194,-0.07994821353093849,0.07439027152722547,0.05863102596912638,-0.008577357183146547,-0.09832489990135089,-0.058914591197516554,-0.09370344434275735,0.051848852187324226,-0.026277741991021477,0.023348990102654014,0.06397519530313552,-0.09991781843479758,-0.05473205523407084,-0.0711694676576454,0.02783069390021536,0.07619201342826717,-0.046943921220478316,-0.0002233655699241901,0.03885783226756486,0.05480741959088398,0.07420565590176076,0.025304114046754755,0.07059018304014429,0.008706655653703646,-0.03938624944974476,0.04461919302430005,-0.004880249877490476,0.025262674528978516,0.06311519118091022,0.021612546799619083,0.04681164396004308,-0.07104732922526931,0.03026504823613921,0.07936012192915871,-0.08061524191412608,-0.073684786104892,0.02547745261988151,0.022110170541664236,-0.05079420726786386,-0.038670302257430435,-0.09366547391409806,0.06145277776082998,0.09013465647780902,-0.02191461123950859,0.09002437115337165,-0.03265805511969646,0.07949693080072545,-0.021341173812457655,0.003996577239494088,0.06130799092078727,-0.058009456375436204,-0.00014317181447287103,0.07863179154020851,0.0045790138609803415,-0.042454327653570705,-0.054170160269195446,0.011291680315821883,0.059843032080106676,0.0405430039919908,0.025791122521353665,0.05379080457241421,0.024071325092781284,0.0936648020583095,0.08332662367526016,0.0780300763650403,0.039846577199464474,-0.08397679867444113,0.03336372033441476,-0.05032801939203343,-0.054966579753790816,0.0044741813603149955,-0.04775189775971483,-0.05542575320824244,0.06930163237229112,0.03367948477555674,-0.08904189444437363,-0.023926040545944334,-0.06446058767805803,0.06981029530775142,0.08525209710638934,0.08649659348022158,0.10025231031139799,0.05011629955717761,-0.024719929914813955,0.0719999148934853,-0.04271272912557565,0.04863261565520953,0.07475039679621513,0.038250681487666624,0.09642049846749577,0.02510906321587444,0.03943174093150715,0.08591434466711637,0.025949246990353086,-0.07503859366685244,0.09495789868877746,0.07226838574415995,-0.0679367051909597,-0.09207133047350832,-0.07065615628833152,-0.015025742412740958,-0.07539916565902662,-0.08648436203275663,-0.08099751664151576,0.08105516019377734,-0.0507655505565494,0.039731484085970104,0.012395711870076122,-0.02571966986948723,-0.000980337971632145,0.08388142779407015,-0.025948658712713877,-0.06371325564974123,-0.029270510662016518,-0.08347145687468033,-0.043998899226837536,-0.0700511628645211,0.07381878444356285,-0.03575664548841203,0.08164062286063524,0.0553988931416416,-0.017483781154550248,-0.06374314955483186,-0.013119333594885164,-0.06538293016668976,0.03304443224451193,0.07317736547989616,0.005270177366314472,-0.008257785762642677,-0.07967604490709045,0.02549120429041013,-0.046106619141757954
0.0502970355217833,-0.0810727394444222,-0.08564321971764219,-0.027497659702936387,-0.08678536223007598,0.03228098120959244,0.07318484327049428,-0.039942086558085774,0.014599960967627949,0.030295872221195497,-0.010962405109374733,0.0749747013636815,-0.05868510232890085,0.004012780645225246,0.07437271978111668,0.036589054413730907,0.05641857045643484,0.06730937987308633,0.008348865478921547,0.05514730405472449,0.003945037470412204,-0.0345698347642606,0.04487212359207334,0.004704739881236875,-0.04895143664775043,0.0909803236394842,0.03009033512917864,0.06233944762021044,0.06918211308788175,0.05608429510671585,-0.05474113097257608,0.0728021294421172,0.030193621694567765,0.06322465866201366,0.04577981992340782,0.03134838813572346,0.03496320704522433,-0.07207242152886809,0.05164630863809028,0.028870956714078938,-0.044615889152237645,0.07107045228139858,0.006784917623765879,-0.08991523107377643,-0.04805913607560107,-0.048524625406060375,0.03140927869473689,-0.09280289109455316,0.09737327656367008,0.06711023512516061,0.07508122675613768,-0.02386129673753098,-0.08525251346192182,-0.05829354873016837,0.056404448555904735,0.045230764394662205,0.05192384020439519,-0.015005754653999519,-0.009460212463923015,-0.06905337098679472,-0.09606290894671103,-0.06861019169841566,0.0693767137278069,-0.03783256531565759,0.06747687595149125,-0.031019505752165086,-0.08402218713340655,-0.0875639815925824,0.043256095340426286,-0.040827361616175624,0.005579371055344341,-0.03682465558722455,0.08607488387401184,0.008010512423251733,0.013923871127445503,-0.07071921787183356,-0.08206669714951868,0.007096963604168278,-0.01643299432328753,0.059995241329229364,0.006845605775675447,-0.010023068295148783,-0.014486612689636368,0.016815910177011215,0.04763723881613961,0.02936250289473239,-0.02327171213611155,-0.00931478630455219,0.03317483084998829,-0.044709631819027866,-0.006060649500310079,-0.014748391938744087,0.01857119882352366,-0.0889217715850803,0.003620506119286374,0.01033183264361104,-0.07842224979675648,-0.08274783115187051,-0.04690776159291102,0.09173996862103194,0.08570402283556437,-0.0661658772344649,0.08603998624854414,-0.04504546077896591,0.019543288733779307,0.06510989258114683,-0.07547167156320914,-0.0333435141390389,0.019869115925319644,-0.0936759650289262,-0.03041296408783336,0.07658251862641006,-0.06258535263469328,0.007999706524247762,0.03207546376713279,0.0019722261518434537,0.07701673274330084,-0.09170564034102587,-0.09608264438402678,-0.013867150870981552,0.07986373162173507,-0.03403245129071809,-0.05441038984207268,-0.050077151788242985,0.05120252840680102,-0.07546090657576106,-0.03992570524169955,-0.026212844150325952,-0.06907813590204911,-0.0853075177396105,-0.08518316315325251,0.08486000729950459,-0.08686641598851176,0.08370631631525859,0.02873311418825964,-0.05324425609826402,0.008308517642859345,-0.05769810248919716,0.0571841396624898,0.06268850139100254,0.08498570024613052,-0.009590625858763612,-0.023472925238598084,0.08479592859729101,0.03658547829056112,0.022281274404219165,-0.09064229532511354,0.07746745212366157,-0.04422205290457849,-0.027145056445866338,-0.029511676221290858,-0.017540091644249002,0.09522265658141427,0.018580336369999857,0.01249916043592718,0.03547957042269185,-0.05533809264321915,-0.04687914519260793,-0.017445698442477984,-0.015664562487346375,0.06846328148971226,0.05803612433417614,-0.09963171234656158,0.0394662047423952,-0.00822352512988869,-0.03796424998139991,-0.050059556437143896,0.041048005503375756,0.06872980610275792,0.07690193411044567,-0.021660157703727957,-0.09249466065793589,-0.06772905632594552,0.02042042626035927,0.0671394426227714,0.05773625495450179,-0.08787488434512679,0.0640227343679283,0.0727837372663312,-0.07660969202772899,-0.07428102673351045,0.08806947191838571,0.044270287274022636,-0.017542485037320164,-0.031872387423238745,0.09032422723192243,-0.061348176796658264,0.045048645880702634,-0.025570417794347246,0.027963384385016585,0.07210590824201908,0.021133409399864574,-0.016827023453907984,0.03232833555868553,-0.0010985280363081764,-0.055960828779753155,-0.05636260218988731,0.053048371553767855,-0.09708455300731836,-0.07685297261086407,-0.00818472747797924,0.017499011620701225,-0.017081470099316386,0.01973052969566489,-0.06116255576571843,0.0028903416058510298,-0.009248492676091095,0.05206704688416426,0.03639741629662852,-0.07572705187020724,-0.06070122301211921,-0.08235995946073965,0.004928531631376313,-0.05335109797174445,-0.023753197149776258,-0.09057915242420497,0.08904216022475413,-0.028997536106021907,-0.06205245970485922,0.07212943716809958,0.05998013253326121,-0.05799196309355915,0.092913008543733,0.025918555045375456,-0.07929066777488201,-0.055884695152409763,0.06635407269039739,0.08894090870857245,0.03290808302228896,-0.07245443148411214,0.0019947204691405994,0.00802782899321071,-0.09905277124835508,-0.05737663082351906,-0.04907022146440154,0.01691407807317878,-0.011461368178216231,-0.03656601558723179,-0.011232968036504127,-0.09541009497304302,-0.08642929486621889,0.07891621464073435,0.01962045147810131,0.025596822685623088,-0.02812092837486473,0.057759362917139824,-0.03422120064946943,-0.02848836823746051,0.08477264894864472,0.026494406237282542,0.020282999207482704,-0.06486248122536936,0.0678243698638837,0.04391048277915512,-0.006355548939753189,-0.04196920221905005,-0.07202766607513329,0.0853257875944959,-0.07264702154564998,-0.09348135274864856,0.09862972338518526,0.03849544132054502,-0.07676488890280196,-0.08887004656621976,0.052742982701325575,0.08971752640760021,-0.010172476687849942,0.07441016528820524,0.019581960522451952,0.037346970775454624,0.08381001988923831,-0.0471656912560238,0.0006657774822030734,0.03604568016374156,-0.0941168243136086,0.09002153724098264,0.019918234832099858,0.04342914159377812,-0.035565271640135634,0.07552652034148127,0.0012803929833015276,0.025842141491198234,-0.05052577272846505,0.005187225129670101,-0.051900773159032174,-0.07084282694012979,-0.006365125505149965,-0.05662256660639091
-0.016695134754802426,0.0576888745654659,0.038595672885226334,0.07600650105961408,0.032066806263027416,0.06691546807361407,0.06856727267715348,0.06558540471466029,-0.02902984196430953,0.08039328276760768,-0.08910818327443518,-0.019411784674093397,0.06086951112423693,-0.02160114036574139,0.09445452972725353,0.01719224425228249,0.04459407073516744,-0.09517146672596047,-0.08835822295459828,-0.03970214430255712,-0.033247105882210554,0.018822564981811285,0.025671278045113103,0.03405176145951663,0.034433684171491084,0.040017310458663975,-0.00250863469796113,-0.05270425542015668,-0.05074222390795396,-0.0850865262870556,-0.02310333046231025,0.07915320512488212,0.10100496837992849,-0.03787797249649503,-0.08144767843563973,-0.0007996588728772314,-0.07429598470154661,0.08756066119657341,-0.00805113050928145,-0.06582777523369393,-0.07803244847334591,-0.0018252788680454127,0.08447209641014866,0.03671457038037992,0.07885245910724278,0.03993827893803485,0.05944603032348473,-0.020075523222185875,0.0341357245386758,-0.06805428129667088,-0.08331552582658548,0.01228521977103892,-0.05704912248138481,0.04260898656577566,0.04996299084252046,-0.01988150138957994,-0.0960587832186071,-0.052657983932571054,0.04623804163663293,0.0015671975472158182,-0.06251306477675382,0.07076304311532026,-0.039491913202504086,0.01749385293968467,-0.08136316193636879,-0.07806080274104807,0.032303186026200345,-0.0998858823185779,0.08235023483324332,0.041502425641032355,-0.07796198246779126,-0.03619595863746033,-0.029355090199146464,-0.08504777425901353,0.04920167817292612,-0.030166105706036644,-0.059481975582890055,0.03650314284667914,0.01274202536343115,0.043866908714723804,-0.06739446580758608,0.08669080890344799,0.028775607626693102,0.04191053099280628,-0.03893584819091693,0.08595652487796514,0.028551641154590277,-0.02769145514617676,0.028977779639079833,0.07471763917129097,-0.09384639245116214,-0.05674486186035923,-0.07621528683544734,-0.026270991503017014,-0.007109258235101516,-0.027438635548780163,0.06965279193134521,-0.02988849898751705,-0.08976582663990722,-0.03957970860622041,-0.04308539435166992,-0.048076556025504,-0.03898124602930786,0.08989738093945104,0.003532296660931004,-0.08320158058807242,0.052154209410512194,0.010354739590147766,-0.028920664547217985,0.07875289434920683,0.06427448647669946,0.04237983698102991,0.05852917457752608,-0.07874607174506955,0.09731750061881013,-0.06338705302126288,-0.09311848240838909,-0.030850854386233,0.09375285124630348,-0.016345174929234957,0.06473048570997847,-0.08243781707052703,0.0809969940377624,-0.02675242731190149,-0.05349730317708039,-0.011053548694530064,0.0423000987732861,0.026551516895831694,0.019528881599127107,-0.0488623225357978,0.05568382993780293,0.09271393018210822,0.014207907655277421,0.010091918078018241,0.07430192366839812,-0.08218431620992703,0.0011168496269256096,-0.10078452867808765,-0.0727306988503105,0.045790027737299586,0.027042979224601745,-0.07322214478296878,0.012586015146962306,-0.09595141480548561,0.03999116689301965,-0.046298088354841296,-0.0580006270637699,-0.014589200686004836,0.07157196692520029,0.09105064938054581,0.06376246164074331,-0.03580807971646057,0.022850269801860345,-0.037140931814404365,0.0599226448864841,0.09750346240648584,-0.0003121564390184456,0.032336478184178286,0.010687451773704159,0.03550274496836808,0.012621262983107968,-0.02365013632477586,0.06954378566682504,0.06570905518586373,-0.007649965835091509,-0.0018159746898702683,0.02754406403516319,0.044645140168626515,-0.09187312068451307,0.07837582666534082,0.09284134783160036,-0.07212886925842105,0.026612591014485334,-0.09650711241096736,-0.0074459791420750645,-0.05101348226672286,-0.1016244722915121,-0.03240105254868975,-0.097896107180054,-0.022418720040716555,0.044185100284854124,0.003981479037894549,0.06349711595612491,-0.060807133466582855,-0.04725766504013585,0.08057678777891687,0.07557847429026564,0.07931563666247712,0.040117168481077554,0.10177567501105905,-0.01756004204039559,-0.07049850381259527,-0.03846676280179526,0.025489032566841426,-0.09631542277468229,0.036523846134349586,0.0020084829586646783,0.08080128413380197,0.02190383033841318,0.09793400089121389,0.021494716594175504,-0.062109335311568085,-0.03476358274510555,0.032503908339816666,-0.010612723147113572,-0.07909018526318445,0.09092777837076109,0.03164142783892807,0.09392157821618989,-0.09303981146957245,0.05990906773634629,-0.07147505734880927,-0.06068498606553486,-0.08464113513261495,-0.06836641358420754,0.03417594471618789,-0.024934952994507698,0.07762341595777984,-0.026497289053714578,0.06738696097744382,0.0926078977639215,0.09025417579679912,-0.029332332153866485,-0.015252596189973579,-0.09635747804027057,-0.07605620053905962,-0.053195933687448564,0.008753522871876578,0.09606288394615216,-0.060136661748975986,0.04652242652897339,0.06194939539980872,-0.03537434176424232,0.07846971506117882,0.0900187334096052,0.058883887300674856,-0.019978406413026267,0.08495029288670973,-0.052099471994493794,-0.01819635774647594,-0.0650412811324664,0.07653587168821538,0.04011388100440408,0.04233091537220543,0.04459346210163805,-0.0512130418249283,-0.06346473981318379,0.05248081867375129,-0.0904581059349315,-0.08847918486220194,0.06624730850721886,0.03810143428749432,-0.06739023166536472,-0.04880876389850627,-0.07079765542498236,0.07118001964655596,-0.0031940951366614596,0.07851757949211768,0.0136506836475538,-0.08385302906458454,-0.015080444101436804,0.03661244771384102,0.015466198688101868,-0.08613794414239999,-0.048270881389687915,-0.006930509412060092,0.07782957608051609,0.018001768000931447,-0.04135550362898984,-0.06045741916716374,0.04919456909091218,0.04797862797359762,-0.039875412897061376,0.05398034322271513,0.05217505915075539,-0.024547164089373994,0.01932854332647513,0.04213045886879828,0.09726313515711137,-0.06181874479843214,-0.044681219559344176,0.029609915268504226,-0.008948756921457376,-0.035288820853462445,-0.060705226672561015,0.015636299474034995,0.07619904007980693,-0.024983649541107482
0.05291252427220644,-0.09134525849992647,-0.06758946389562268,0.0012436946485139169,-0.039325366923013964,-0.02745389151038112,-0.06603523833910324,-0.03348701174277222,0.06976848163027032,-0.017094913009102618,0.037204920612820165,0.0715231823195555,0.07825747706574342,0.09340317736376105,-0.04374839434307596,0.05463223016270971,-0.01433506375694659,0.016964959227834402,-0.019467683559070147,0.006272829132472543,0.024501278744478678,0.045559104892421105,0.0906743570090555,0.032480196265815185,-0.020009384356482744,-0.004780764094009318,0.057627216970897475,0.09312952059593126,-0.09606693783561206,0.07091004861853671,-0.015598238987925363,-0.009486541088653983,-0.042045239428206746,-0.06549507301781483,-0.029908607092197254,0.0756167976458308,0.0055363949265269195,0.060446146415511895,-0.08230704551821337,-0.042537109620661616,0.05033327976683471,-0.07234290193525678,0.07305820299240766,-0.03420485717337959,0.05868889468267143,-0.016925629033923098,-0.07675318992187442,0.045620622473586184,-0.06763377362636473,-0.016892856326378665,0.05053758530855936,-0.07870282370171978,0.009557042326789033,-0.07520062214758678,-0.09961458974692629,0.0713220394935045,-0.034592637710941336,-0.051976274856719705,-0.04783485816766233,0.0175272969555683,-0.046288941114343604,0.09431244933985262,0.05267601080384309,-0.04323762122950601,-0.03541188134066497,-0.026353056368740194,0.09935390389391181,0.08149577134509198,-0.09208774094572575,-0.06420310094803894,-0.02114029033779794,0.07025708929659184,-0.06330992507228167,0.019793974101053272,0.06879408148778417,0.03780212434644953,0.02439215537932267,-0.01885736512384094,0.021458198362930277,-0.012976286196513531,0.06699912999025834,-0.05860598318233023,-0.04539109105501585,-0.05327560825648754,0.06873631616935509,0.02014166149373113,0.026069931656068416,-0.041005629737985744,-0.015079054875195903,0.02263120375509245,-0.06175878919170647,0.09724837142593509,-0.06753908030028022,0.09266569836023292,0.004140782700208141,0.08348872916038395,-0.07666052301840423,-0.0005420037177333155,0.05536053314541201,-0.07808441272173167,0.026977712169366806,-0.06203754942057279,-0.06793137806632461,0.032329207459732084,-0.08534586188657958,-0.05810141568749168,-0.04975382602025295,0.09735053911237077,0.06148286598868371,0.049868111370744074,-0.07335176431796851,0.039825197012887364,-0.018766512236578832,-0.053823227647319914,0.08629728379759269,-0.08209019001777156,0.027251282264064706,-0.07427823486530091,0.018311250017835706,-0.04261387145784493,-0.013700792545375868,0.07016711489753907,-0.08055694274813859,0.031469571775538205,-0.08395585067268722,-0.006754227094416864,0.05261771659314692,-0.06867669328241843,-0.010961493682494694,0.0031186345469043533,0.08759625165765322,-0.06637473377021588,-0.05931046081840076,-0.023166646348843658,-0.0713781986410569,0.011189823570894455,0.0029644079078188466,-0.0937347242136848,-0.034488910502339085,-0.0431204433639208,-0.0470455240921867,-0.03781644958960482,-0.004305840502313853,0.052872293122647726,-0.02572494679121323,-0.010731965929761394,0.08773740422060458,-0.0434311417588521,0.08794583898533459,-0.02166105344044605,-0.007010828046252914,-0.03582527614705412,0.08076781067991415,-0.06483559313568175,0.10045069864503402,0.04080537256960144,0.060438897286742094,-0.06449717691283859,-0.04875964132411379,0.034176836096510246,0.07445325275405182,-0.07803432892780363,-0.06428310395315118,-0.04675261299886936,-0.02667574968460487,0.019232493980502693,-0.008117584822846568,0.08143059951454389,-0.009195905073451511,-0.0823728790283242,-0.069916129372742,0.05800973230160982,0.06145500517585542,-0.048486862355649134,0.00013717378036813156,-0.07978582583012972,-0.01895425513906828,0.03672992796429946,0.026077247040431673,-0.0332603504094999,0.02562973315897017,0.03198246391769547,0.06925001080064544,0.03672549469097457,-0.042118647353900585,0.014047851355332642,-0.08311627734314403,-0.05576296006727711,0.07166376252479452,-0.01953238412621519,0.06209966642416742,-0.014492084802513077,-0.028048058332072145,-0.07112220184182969,0.06901908151037925,-0.01827911520470647,0.05740120140706482,-0.01733247242227392,-0.08949987204333099,-0.011691819962687809,-0.0797537259878761,0.05004079788122433,0.0076244765283078044,0.08113025603145281,-0.07127169576662133,0.005205677732006674,0.03026260726248811,-0.0534298842483694,0.10284479042630369,-0.005356120714354389,-0.06500006301637723,-0.06938616732948998,0.019755105138520312,-0.02702859518835957,0.008714840068147206,0.032643852127727344,0.037517023240224545,-0.03925144928017021,0.007762427352873382,-0.03893980036590335,-0.0868569996235654,0.08075861622177687,-0.020554439389926262,0.0024797148856635855,-0.07175150110884163,-0.022434686179110954,-0.01097669113299835,-0.03769125300949846,0.012264858295182571,0.008291527854207162,0.05660585556331648,0.07879869416152814,-0.0006024072323089804,0.052894732362491606,-0.022892704312624166,0.012930680160708315,0.0744779042446317,0.01755118397232839,0.03126648569305922,-0.071358574881624,0.04350513550701859,-0.004654887177485002,0.04955959088993099,0.019714185510341257,0.008646681979939322,0.09038297736397478,-0.09702357352267287,0.00814449312138332,0.09241118364243707,-0.02314975368067395,-0.04316835757483704,0.0326741973235135,0.025940398485163142,-0.07649778870993663,0.03126880964427392,-0.08167261809966321,0.020893016260674403,-0.07476361172555296,-0.013298828531125165,0.05364725364823886,0.027516944152224054,-0.06058203201971028,-0.040031861057309014,0.010374975388441931,-0.03640086776714077,-0.04918606482841683,0.019881824684660224,-0.09898755109548348,-0.09010031845734019,0.03443219847529018,0.021472607894813162,-0.09694345394125471,-0.05195294025809288,0.019706165606947865,-0.004684703253154983,0.09613964004109436,0.09469015173548098,-0.07442289144560618,0.0839366760940736,-0.07909173623098326,-0.06045360249741238,-0.033617613971386934,0.04657624473487761,0.06781928983128474,-0.0902288851095236,-0.007872568191597429,0.02476457781526211,0.027088885535421693
0.07872430511816711,-0.0008654920813036909,-0.0772917865966184,0.09531233639693451,-0.038209785241582694,0.07615095715510686,-0.05478617879488202,-0.0022072414061423276,-0.037434563413670706,-0.07146735383472388,-0.019672299865295124,-0.09233583773920027,-0.005256370298527683,0.08169077823952153,-0.048501060225006803,0.0707353217387158,0.09466090728647102,0.003540886985695534,0.02396762037398172,-0.014832724157759818,-0.09855605294375963,-0.004369375151088203,-0.02701379069024417,0.08672751199660987,-0.0014854918574083737,-0.08009374658993307,-0.06394440574346841,-0.06337631443137438,-0.03291289107624166,-0.08927801785268001,0.024992968010448688,0.069444588490694,0.044371170765771024,-0.07812195476608369,0.08989948798679193,-0.023000802421180966,-0.011203638865195665,0.09738382316749569,-0.09534525673211322,-0.06886572462029743,0.047485888533280445,0.012904932841938537,-0.013532064517302102,-0.035166385131994056,0.07184370336571132,0.03264641123789618,-0.06101747053920144,0.017777977463435502,-0.06048628346405034,-0.06395681597327442,-0.04998084675186337,0.06916548129608009,-0.07591597719020164,0.10037028157720514,-0.10064655912882785,0.06858561803601798,-0.03774216313357282,0.0841037690908511,-0.09435348387604693,-0.020748010205261742,0.023358276767645965,-0.06909614661269393,-0.07926597523946054,0.05556477727408238,-0.05436452025628229,-0.0036881727706387407,0.09454043543277185,0.07136828877929507,-0.04447535462352614,0.04855863833937395,-0.010682744670880739,0.0217764825079317,-0.05044607580454331,0.04959135256075158,0.007036710398037607,0.09820387740971953,0.051564691009926965,-0.02709151531419528,0.04573671936815192,0.04548265443755256,0.04755226847007434,0.062146311522847594,0.06591913081845116,-0.051460020631722135,0.02453841739532455,-0.10134864769647613,-0.0753654139675168,0.0891596332574397,0.013303454976814373,-0.06866553481791132,-0.09295924885280492,-0.06829884923276082,0.0359589604277205,0.055917387633913664,-0.022172001117693393,0.017557586705233934,-0.059803910146142586,-0.041567019623974716,0.06583804822089066,-0.0830291357005629,0.007284188789553046,-0.04967321037415119,-0.09759653915341816,0.04374009540525532,0.09311600558197283,-0.0903527467957039,-0.010123289523270977,-0.0927818689338514,-0.10239345270165882,-0.022498862738240227,-0.0903755018475496,0.021604727655862483,-0.09167493202622577,0.005939430485981559,-0.031170038769550698,0.07927493306359984,-0.08458652674812842,-0.09515048587000524,-0.003978287029548776,0.0128666564724923,-0.025972995922853844,0.061041891635475944,-0.07550230353474308,-0.0038558548058959786,0.0409036966516432,-0.07887117277057043,-0.08602165409931158,-0.07167456977608722,-0.0938852870573514,-0.026569083338082555,-0.06736511488714518,0.06990802734047588,-0.032595707980102105,0.014766077737398447,-0.0006878500901068922,-0.030381460616005548,0.07927982373124487,0.004276499488804221,-0.019164807816262074,0.0547899837075751,-0.033356659607190614,0.09958517775397083,0.08620022993074122,0.01487918422305086,-0.0174179699951677,-0.045845096274011655,0.08176089861402423,0.004336227268853245,-0.04419397414219271,0.03334833291745661,-0.015711768254094503,-0.02004648692144085,0.07968971228425352,-0.014780740536961292,0.07705809466806214,-0.01653821822515565,0.07271014474613896,0.03396988531608115,0.019568265783371112,0.05471911143937435,0.00952936788321008,-0.08334570107129206,-0.012116789775203758,-0.026636409403546567,0.02244901277724169,0.08334221821474123,-0.037441587446915045,-0.07709398387104915,0.046442043379931915,0.10117308003383797,0.05299628508304144,0.03658563190936449,0.008423270279991816,-0.010709553245792782,0.028809363561311134,0.05335400402596413,0.038471230571068875,-0.031447614167045126,0.07173124647260154,0.09193315590216049,0.0870892524324414,-0.08560274720430683,-0.02021575578385067,-0.04694997429960537,0.031766541200052394,-0.003498742544613399,-0.028727888190751602,-0.07284286820078416,-0.04447461622035182,-0.0193135677796093,-0.08130624449211879,0.0385034568885177,0.07622151025810624,-0.005771403961014289,-0.0827032143162754,0.07655532033033408,0.036093204203529544,0.04217433152613112,-0.10056885619183795,0.02968595804115218,0.050717108797396986,-0.07538383816954737,-0.040975170005870434,0.003851853523691439,0.08609982116893598,0.015796731962494967,0.05452701376400834,-0.07673324527964254,0.06897215784915116,0.04003608093384821,-0.038630183677068046,-0.03177597037680657,0.012343346809748402,0.04171276174541385,-0.046846277474528894,-0.07698983160880728,-0.08888527218193125,0.019207866571443268,-0.04008119195092767,0.05315440119098715,0.027661448182989774,-0.04924778303347326,0.033723296757342085,0.0431141271717024,-0.003124268118530121,0.06799912217078269,-0.03303727141619434,-0.05043991279391865,-0.10007523773606743,0.03193440854027158,0.00792900573820733,0.10067140671457774,-0.083441790855668,0.07594504878065703,0.09344098433417589,0.0408924310283833,0.01892549701834356,0.020247249122737402,-0.07936162491725814,0.005647826959873561,-0.07968984926903686,-0.0009833894940013735,0.03969539676140045,-0.04366652975108194,0.022375583722688577,-0.017994813953909325,0.05832291297695693,0.021612061752299926,0.013711419080307426,-0.01225762829800237,-0.0921400176008128,0.06969692235618774,0.07325386727577222,0.06864389591713183,-0.06697651455670765,-0.07872839744131249,-0.08545057357710956,0.038465965557680115,0.004165501453427038,0.0734919358125165,0.05736513735185866,0.07398934224823707,0.0002440872877994102,0.09205744723514754,-0.03483036315877203,0.08561634282593987,0.03768506608482636,-0.08321338616041699,0.04056997003202077,0.07545077864892731,-0.039491432830364,0.03434250094928458,-0.016520934636777836,-0.06878400696218713,0.035963616428835644,0.0076760502275874465,0.011484658701081119,-0.012655346265235567,-0.05812550368890473,-0.003465659144820576,0.09836134562008951,0.07129742121706113,0.012703519470820449,0.06526697614016208,-0.024411915115402753,0.02580885783350608,-0.0001786272144946893,-0.03210228574594022
0.025677143521754354,-0.045691351645404193,-0.02697615446251684,0.04682388124475098,0.08175104823262089,0.023695153779079506,0.08799129147072027,0.01565620456514109,-0.040869520221925894,0.060182341628920506,-0.02830247247497859,-0.04502466541934414,-0.037589146514629794,-0.0627039349033516,-0.025732009521154096,0.08616781566672704,-0.09590030149757876,0.09258968494484099,-0.03848047651014098,-0.08304070124861371,0.0892214228148792,0.02544959683007925,0.0009101063828295501,0.03077207877479098,0.00522220198730695,-0.08434233452250693,-0.05537815490530506,0.03467033051479372,-0.01626845273721283,0.09794619307020168,0.0720051873328686,0.030823650121378738,-0.0462457488864189,0.08193640765875806,0.08112488371240846,0.025925019190535525,-0.04508127937189165,0.056909715464956684,-0.009283861465116056,-0.07481506396549949,-0.04062681016549455,-0.05757059485397733,0.06850589803659758,-0.06362706812016365,-0.05491555931747397,0.0601650267124763,-0.09469537265689221,0.0880439608404022,0.07940547093742552,-0.0368024317570361,-0.08563628304292015,-0.08836937566196963,-0.0725333700855535,0.05570092287301188,0.04337253296202534,-0.07699657133748534,-0.07361479582019004,-0.04214550817421304,-0.04042033836949343,-0.05855667986913475,0.04108256954940415,0.02542688799442329,-0.0822303678175478,-0.0843614007645579,-0.04084903083941912,0.023332049138986864,0.08675567350464776,-0.023246030455373514,-0.05117784102515331,5.889105455675314e-05,0.028654875289254252,0.015406188324594535,0.09098214112976125,-0.019054720633657023,-0.09764894958374239,-0.06132039577578055,-0.06347851823271337,-0.08104632434169173,-0.012158037514639218,-0.05942381523868909,-0.004735000731310946,0.019305048505995154,0.07542876142467805,-0.051825752790223174,0.09179450272416205,-0.058984615096036676,0.04389058355482139,-0.03458578237676475,-0.08729984427694223,-0.005529276830017626,0.06772483750538448,-0.07179393782611099,0.007177725707326091,-0.054639296032421764,-0.009152453887395483,-0.07354406365077312,0.011535904571604371,0.0073816132727695044,-0.08534154263716648,-0.01830323527066486,-0.06497547063779685,-0.03527899157705477,-0.033184547145990756,0.04316245799826383,0.0744377148446208,-0.08113088617879043,0.06011073964746929,-0.023483260493026095,0.06094239299934993,0.03758344971605094,0.08486145950561785,-0.008116300097225351,-0.02004989376355785,0.053184309507646015,-0.08752700567799013,0.07794463216078533,-0.013089162761862023,-0.04718709464371691,0.011220287283976012,0.09581038651838336,0.04096047893779332,0.000868773458415049,-0.08401870923323974,-0.08339445622878895,-0.023112421586156767,0.02616673478091356,-0.04877421806987079,0.0799125973813612,0.09348156901556888,0.01750612391241352,-0.008915085419376202,0.02199836298425022,0.04593889987967233,-0.07002346750258401,-0.07024163949452546,0.06989205436845874,0.02685650338514672,0.0227174637758411,-0.023816116315541352,-0.10244499736382534,0.018125527669796727,0.08383107446042065,0.0049132122893762314,0.03224399961962257,-0.006351230700282995,-0.08184248229458897,-0.04411548623813086,0.053483334560228316,0.047965990766237976,0.012280794837279434,-0.0175500304756581,-0.01840728313999535,0.011137305656232093,0.00928579311686498,0.07999456825427936,0.010142488661510723,0.0408273439353532,-0.09433188309508717,-0.0372712002212065,0.001010325482239909,0.0869862761822618,0.02601854001125052,0.01656851653189972,-0.0004145595395363143,0.02983664709290195,0.04260489321997488,0.012182070690398608,-0.0732556630824091,-0.0313605116592265,0.015174243158366959,-0.020082729558810304,-0.0008949058634649577,0.09219379457922172,-0.04997133464373111,-0.08995453530297591,0.07743121720681057,0.09206252979689437,-0.07931911129222517,-0.06154854202154429,-0.045054362617105354,0.013963787957956102,-0.08397669181503788,-0.07223091160795266,0.017154212504347763,-0.09304331069757656,0.07206924976001265,0.07180201433148346,-0.0187276669187014,0.008330747856834523,-0.05646519374655392,0.028625108857969934,0.058105005400461186,0.010783325284113307,-0.030023879139825325,0.07605585250187925,0.0024101229197727105,-0.09236983701323663,0.023932693860371185,0.04394851590367086,0.06046760491928709,-0.026383991201658342,0.05137983902154643,-0.08118235351107136,-0.05862606213280032,-0.05764976536624648,-0.06291758422550528,-0.07436059500176258,0.038930545182829374,0.08072086553120979,0.09908611150698507,-0.038314713613416436,-0.018041218760533318,0.0004709335728336461,0.046427033271330305,0.035937006030340966,0.0959715936575721,-0.08945284321910939,0.0746566898027545,0.049195651809995425,0.07079460944718072,0.051560726147760944,0.04374756664699575,0.055392725879423066,-0.09531551025082012,0.06953081435607429,-0.028678883681632357,-0.02301053811816131,0.02709644407121914,0.07892334198385152,0.05958180335473391,-0.1027168869355611,-0.03251511153501403,-0.09386730679317688,0.020785242559502343,0.004535408024745809,-0.048752973720729856,0.0625346380038759,0.040886763781073344,0.06905020894921347,-0.0965273953167002,-0.0389049985370801,-0.05868594802441924,-0.051387614628534944,-0.07370821179177885,0.09489735159786543,-0.07320807459892989,0.01655986250875761,-0.04938033739410303,-0.025683127368407964,-0.005810152933662991,-0.09601017111649614,0.06197969175242741,0.047698150875939316,-0.07648043802219633,-0.003337977824455273,-0.016000671776152865,0.08209648608816597,-0.002354468966954921,0.017486088123484244,-0.040112460400112016,-0.07611094588736173,-0.0764550251469693,-0.06749283189477785,-0.03427503775786875,0.0009225900740730781,0.08863658199267575,-0.0474299413740441,-0.08920583799413788,0.0972793848337106,-0.056467902317633496,-0.01094497986764747,0.029931721066447422,0.02574304654894451,0.008631077717306875,-0.012085022739530882,0.04407126150887021,0.017079580910424955,0.021173707121304244,-0.03060349678645565,0.045526527453435495,-0.0768636631678797,-0.024417723817633605,0.011681463937920732,-0.021923106773819336,0.07625908080564821,0.002393405810318699,1.616322279502501e-05,-0.08732521769537087
-0.007821533127610488,-0.00028496019424636905,-0.01005967830619818,-0.06152738336123872,0.007631882886727935,0.022621251017042657,0.10104865640350456,0.07217806865195812,0.08896685392096404,-0.01703936267785214,-0.023582690947610056,-0.050456288312569514,-0.08655874446263037,-0.08584013284771609,0.008983891294810788,-0.049953835124106435,0.06298178728223297,-0.08971693656718768,-0.0022104383929609445,-0.046588716215759635,-0.08214503427653148,-0.074360924555428,0.012682061862163424,0.08176682763416308,0.027917722572710735,-0.03649827741634693,-0.04259714244529904,0.09286545555384809,0.07375818870504776,0.0254116229944115,0.02559078325191376,0.02382069862668999,0.048306279960299306,-0.07110201246177195,0.07698132759814712,0.0728306290533367,0.017447501891057027,-0.06878724527208357,-0.06841326032966863,0.046930179296843094,0.015046191918997774,0.03656119540235265,-0.05087629059746791,-0.09363394764070244,-0.07233498781223441,0.06602311032913584,0.09821148734500665,0.07453303916277126,-0.01927213612014231,-0.040126977174896834,-0.03203972418715005,-0.007556062799686465,0.00022531043654001306,0.04320730228692304,0.09086509649957351,-0.0051574916105632815,-0.04726570177708379,-0.012604752924867076,-0.030921749105434153,0.06436592031112018,-0.07052383552668058,0.07038903107084615,0.03573570115458443,0.0798036394381651,-0.04711078916717896,0.030930452366495283,0.04292087333703379,0.043728781368681295,-0.012963533978341364,-0.053065005722544106,0.08388768233246525,0.10198692046657191,0.07038765844994017,0.04418328324371564,-0.06990706969864813,-0.07859912008596949,-0.012927112186581905,-0.001845793486173572,0.07004399791445964,0.010991828536836194,-0.07321859940822131,-0.06858782180253745,0.023229528870132948,0.025149096678413013,0.03936385281089743,0.02705779805124856,0.01184384577479352,0.016713743802511234,-0.07502906566600223,0.03865669637859909,-0.01994050176897148,0.08506299260792662,-0.03161258775957748,-0.07330736380117937,-0.07147888681063379,-0.030706751536886893,0.01336037462372441,0.04800344154723812,-0.021922807512020706,-0.08845015030603376,-0.024853404875201653,0.014360739086555604,-0.0720885178100027,0.09563263891512018,0.062090341128646635,-0.055376982693289556,-0.09893220730134582,-0.04630913249545133,0.07115973499571647,-0.057994551024280375,-0.06567931077679284,-0.04163568263996304,-0.05886936506730417,0.05063993644546351,-0.05373716355165963,-0.0032329614306127784,-0.012581829727466623,0.005920237865644991,-0.06655526361095905,0.0676011463481236,0.0964756796455929,-0.022975280874244414,0.081913198413249,0.016494395507906674,0.07872206797486181,-0.05381356503874924,-0.018948615298592895,-0.03793614631688009,0.014217655831237514,-0.044371813696726395,-0.03923517270367827,-0.05339422654781617,-0.08314262050150553,0.007309717197554168,0.09464923666898323,-0.070427542018449,0.003901557902183747,-0.0923902115346752,-0.079732461226395,-0.07521170347039934,0.01588945181350359,0.07848955499181656,-0.02654866402849789,0.0989215773980382,-0.010605603495374948,-0.049112825002710234,-0.08628733755426897,0.020424691141481766,-0.08500062420740946,0.09907472913642791,-0.015721697630852374,-0.08759009934004802,0.06925569564433968,-0.02259474405638314,0.050899278310398824,-0.014251100672304312,-0.04999335628821298,-0.0519988604027225,0.006863978707592164,-0.06534223482967376,0.08229630704656278,0.04954800525871198,0.02072306457653679,0.04668349681880047,0.04762579639433345,0.026362580660789663,-0.031729089111339176,0.052918878006731056,0.010567500564949433,0.018964288993861326,0.04650952672273283,-0.03164330878204728,0.0647376544668195,-0.07288688613239046,-0.02066743189716972,-0.08118285045558477,0.04622088722530746,0.035748336065868684,-0.016070576984226304,0.024276698225983648,-0.004300524624993989,0.09079126085956064,0.024863496081759553,0.059176559977204744,-0.073361025448871,-0.04960520603870984,-0.06784141817800399,0.03991505979485692,0.0600178500151306,0.06239274051601318,0.0319930009456318,0.0004956318645701794,0.04216539459660035,0.029271929967550174,-0.07638658738086218,0.08630993176126649,0.07540161041689879,-0.06509103473895105,0.0031550276501484827,0.09326957753224882,0.024944304782197054,-0.06049803631565065,-0.09419704965349363,-0.09029955751723315,0.06795093902765076,-0.09669844198070199,-0.08783476558314773,-0.011864312709356232,-0.05354869498428653,0.005041686114752294,0.003706869446409757,-0.07242041570774212,-0.0012309712434456618,-0.04629671713369516,0.03809384829123573,0.012138245888964037,-0.02894537084777372,0.010912640219265662,-0.05515682957739001,0.06811616980198222,-0.06723928882884558,-0.009343333987744147,0.08500824973627821,0.05516740848159179,0.0359584689572891,0.005537879035207558,-0.05677525976564476,0.09192896373458007,-0.06781782258272406,0.05553682012958628,0.03835233687022177,-0.05443373114023343,-0.0828785647105475,0.09822896390590331,0.07774290237625996,-0.03779646817693726,-0.001143183234007536,0.05013758375306571,-0.09820141314110821,0.014844282856448102,-0.018158618420438893,-0.03020242023288673,0.08078063801137546,0.019768248374429837,0.006251664279650438,0.05372646692498729,-0.04419739387951246,-0.07411507409719352,-0.006742138890868087,0.07245367325680244,-0.0865705826079449,0.04566439555525072,0.10145676528262008,-0.06698534097420289,-0.0706586554227794,0.014898426452550871,0.0005336217274480026,0.03446800677539515,-0.050200621472070536,0.009706084812077041,0.05260545407108045,0.009520490558098203,-0.06751171800799753,-0.03805511294605445,-0.034642769195502986,0.05702667342076663,0.07431922236176158,0.03993198102747785,0.09875705036530205,-0.046208068287273404,0.03923192799537532,0.008715682381056635,0.06841223380454887,-0.10473728066610896,0.0977619662614295,-0.03809704986533909,-0.08522357090219952,-0.013726901306297437,-0.09903012222381263,-0.0828024641436101,-0.06726943038263825,-0.009813832333108227,-0.027480519444362465,0.05602932087369528,0.06888373676067491,0.05355256079137259,-0.09042876758227014,-0.0351939985150094
-0.010203768515042936,-0.09915143538199209,-0.05878407908363513,0.10384322939170768,0.09627687969051421,0.058404679895844476,0.08150108084328082,0.051759803120251635,0.04016221939025356,0.0235571466077735,0.02949964592553726,0.08818452136850598,-0.07636720379545636,0.06819216185502508,-0.06047476900554434,-0.07825256668569322,0.07293485167741137,-0.015118897004144016,0.0585791616930275,-0.04940296658607942,0.031992868112878145,0.03414028881578944,-0.02610990417501579,-0.04942900734435193,0.04943800340093122,0.03755919171095029,0.0076744813921233454,-0.0041902035475503896,-0.0948162044953412,0.10182713115091932,-0.040906900050858716,0.08379019244337292,-0.05602583543128013,0.08961862023036186,0.06982540545158693,-0.07136152902791419,0.045403711025201646,-0.03059094888067313,-0.040751649524756524,0.06227457858606704,0.09698416809870443,0.01747846120223371,-0.044978818817516246,-0.012666061768201738,0.0015168425084245115,0.05261470216057296,-0.011995763733180642,0.02227076958165003,0.011545254456325345,-0.0484665510810343,0.06408706298470017,-0.05036844096353904,0.008238007751118517,0.06942929552260428,0.026510767966769964,0.03791239392180693,-0.099142315214826,0.06332668622411397,0.09308096151085392,-0.07294727960867295,-0.06350883791277145,0.0035540406112263964,-0.00531956965258479,-0.024216430831763967,0.10323261853334607,-0.007766067163749293,0.095108786374507,-0.0980334990058933,0.049684199671113635,0.009820834138313436,-0.016224130248528135,-0.03774022405705127,-0.05214688550813903,0.027900066043114565,0.03293248650520944,-0.09065969274526786,0.09000260443265355,0.018503736372849015,-0.017432863984362234,0.018475138446316743,0.052937584293479924,-0.007047575795510221,-0.0670562362872739,0.030343165462369117,0.03324527047688915,0.06123710325177322,-0.10038183089409623,0.002042828959410891,-0.09856282847064629,-0.09236648852537124,0.05979617048361967,0.09153172642227657,-0.05193681953067209,-0.024852461950535837,0.04524472089205351,-0.026005745102427043,0.03650745225203753,0.009854884951337264,-0.0017418212766528785,0.08437119674542301,-0.10277921923200177,-0.043747894231851304,-0.08420571191884317,-0.08326930952180359,-0.0418310649217135,-0.06170091852099991,0.021005352146059655,0.003574701180764423,0.004814045129445512,0.058933879519571686,0.04978082361687383,0.028831410193855454,0.09354827232072581,-0.007157967495118269,0.07385867166347025,-0.031242996672895176,0.027952786490158255,0.013868089618908844,-0.03383011122884518,-0.08723194645505356,-0.05052696510313823,-0.08623211874312417,-0.06909731548084246,-0.07791385943808524,-0.0028276267103290315,0.08393132659823917,-0.044888030721455814,-0.06004246294080019,0.0452374202484869,0.045236545209744246,-0.008831635981495441,-0.09198367708075773,-0.06390445065384631,0.048372592580722025,0.009089892752368644,-0.06739168137731617,0.09470927865407003,0.07419568646415096,0.01555327082814362,-0.004795673431921136,-0.05200961801093877,-0.0197989264561384,0.07409434375620674,0.09391515976137375,0.06988906891640823,0.0933850253670989,-0.02464254466222666,0.031914210851746685,-0.04070294829627921,0.05966097957483601,0.051180705792683814,-0.004468675535451385,-0.0600507858737936,0.008561498459719439,-0.038785078550266215,-0.062354428467505385,0.05538210209835742,-0.0660202766448808,-0.0163851238804377,0.0513908650716175,0.030647543144239668,0.04727498270180088,0.010903424989520462,0.02158858841985824,0.05381579822940397,0.0016522406551339045,0.06270552312521374,-0.09131655583654867,0.06023753903529724,0.004318175511958768,-0.04287282873040903,-0.0011198221806080558,-0.05628021104445326,-0.05652471021294744,0.015267430844895609,0.013531860266629713,0.07924627540032958,0.031826515944371976,0.08730763420381199,0.009972244934565434,-0.07105275123765563,0.05381231982065013,-0.04533720037083218,-0.06275759505639954,0.05698643881050397,-0.013951753028556666,0.06692229048075962,-0.06311798752999218,-0.023992304897029918,0.04676346725754835,0.08085579454602367,0.013669452431177127,-0.011420115720188858,0.03120959569180315,-0.09883193831776112,0.06099721357964653,0.06463554822244041,0.04983569306676737,0.042512947822465945,-0.024100601020273494,-0.05049342082502861,-0.08351771024062804,-0.10003757367948961,0.016343810709908584,0.007989876845614443,0.06282760708576968,-0.02466543897364483,-0.012015662946080531,0.009007561780727692,0.02536455747867469,-0.07427068182351414,-0.06552684451000428,0.07204876902484321,-0.08122161976704817,0.0008756240044459582,-0.06010011956953771,0.01810705325595886,0.04640519707830935,-0.04098134192681143,0.028967746716015826,-0.060185224076989466,0.01666309171447533,-0.01390544038987801,-0.025699872693471484,0.0755987738223066,-0.07117449952078395,-0.05497929086779326,-0.07404278223570493,-0.08764614990765689,0.0594914781827706,0.02180137537323905,-0.006867289197176478,-0.0398631725526443,0.0030633923620984847,-0.08392631841718008,-0.08400121746846287,-0.06036108385755592,0.09942707340337681,-0.02035294018131963,-0.019697501021174582,0.0874116181337006,-0.09532411579578029,0.05190884272027489,-0.060223310767428206,0.02719681582369917,0.0672965816896293,-0.024683735534491925,-0.03136703413841689,-0.003283612401424739,0.0281562444188539,-0.09307309010496058,-0.059034971393979584,0.06687908463290251,-0.0459061779058573,-0.09494105386436474,-0.056085410756502224,-0.003383133373755629,0.027070361273651554,0.02126262470951069,-0.07953423722556548,-0.030695730234723426,0.02130774306301823,0.0893117770223769,-0.053349716138753216,-0.03139274283724013,-0.07865164621954975,-0.03948195611275598,-0.018817247814617116,-0.04218238922837752,0.024954872332257516,-0.0006527794028583664,0.09399882885796024,-0.0821426552494094,0.05852340819602341,-0.09555365408078144,-0.003562879242841192,-0.05447465543009037,0.06106247286001746,0.06332316749210198,0.05533099443432943,0.010475477502903086,-0.07073635810033482,-0.07863963753960614,0.04679395829592706,-0.09423807510258163,-0.09911189219850038,-0.048162198603116026,0.03697609126735617
-0.040108169326261676,-0.04377235126288461,0.06824757347895657,0.09828433676232712,0.06533427808819735,0.04511809792584482,0.053225308011426796,-0.08362698600447113,0.06155883434025114,0.09217342497276305,-0.013439169131224185,0.02819373126462818,0.02753670234976622,-0.024286312830625396,-0.009487386683521858,-0.015294073670332286,0.03541924679859475,-0.03710098720581399,-0.06862649742723088,0.05071781535410037,-0.007626521588683755,-0.014952336409674211,0.06210031277794041,-0.007528429799921894,0.05456182333876851,-0.07815925419833648,0.04548427884165749,-0.027641725268278475,0.06744344649311078,0.03674776539650661,0.07509626349863438,-0.05695091375512966,-0.09462263516104255,0.02531269663030326,0.07293370305573418,-0.04935608839294989,0.0037491298275359845,-0.09452072384460912,0.09861483805124588,0.07439357488034573,-0.06420119073389101,0.04697547735145103,-0.004178245571474382,0.007711896998097981,0.04277313876050888,-0.04517402814591419,-0.07019763522836843,0.031291849820914076,0.09182784899692609,0.06742344731843332,0.09008055455992763,-0.045789594986622155,0.01824590327919241,-0.012918121049562742,0.02191924518618484,-0.0775064472729677,-0.049613299794808115,-0.044774722493917396,0.044595431029263465,-0.07186096404013909,-0.0571415621838091,-0.02475638175557494,0.06847565903952882,0.06856399004956812,-0.03271098527474968,0.03945996235462852,-0.08689833329505194,-0.06236959128840408,0.09354274022513373,0.04229066376792997,-0.07837117395913289,0.05198198856189781,-0.059435479508328525,-0.040371209934662484,0.011304520328449813,-0.08550636709263042,-0.08122177091263402,-0.005416230728254047,0.03131719864743783,-0.008659202801995542,-0.09334900115877265,0.09398564910660101,0.04511444707797034,-0.04569942090512671,0.03819944069221006,-0.03544437751334668,0.09278526706960548,-0.02365577839426919,0.06463274460950887,-0.08397677931821539,-0.06233147932267449,-0.043916744425268175,0.06731700324334249,0.07764600980661791,-0.07864979498027413,-0.07856666312255381,-0.009813143143940425,-0.04548986829066675,0.03523012776172698,-0.10256715831156128,-0.07038531136131859,-0.04463865533206955,0.0888881715471399,0.056851016863335116,0.05071187941308872,0.051080496990717046,-0.08456208779753048,0.0837996526737748,0.08717343609469298,-0.031488918281521686,0.04476684288540031,0.05247844160791277,-0.0928750687752304,0.0512534453925501,-0.016623870698154707,-0.05131448869207154,0.07702906944272585,-0.02274527797627663,-0.0976316885940599,-0.04062788113307111,0.03254765853733067,0.046260316459844845,-0.015523631538728187,0.053174864320904416,0.00691915518093109,-0.007647029217651638,0.07244385433717604,0.0931380302990658,0.0717071987550831,0.011404562123511935,0.08430568562843575,-0.0787606870553946,0.033953783276731146,-0.09186636795713038,0.012018676029916074,-0.034094624511598934,0.0831522789363713,-0.048527825151746445,0.03621191068824225,-0.06279581233249096,0.045224636968765185,-0.01363946076870634,0.0510581047816341,-0.042776382992070476,-0.015242161165184098,-0.028302562151558498,0.037456398719749616,-0.06870561741887485,-0.03913289115343944,-0.04437222425168486,0.016567994793305712,-0.004351912040630038,0.00637328319989781,0.05355440063083627,0.005133084709208794,0.08425925036055953,-0.02430653022603942,0.060073528958292606,0.047683335955785895,-0.10314957181237197,0.06985447539629769,-0.014019259700268316,0.08372998396775372,-0.010156938822705859,0.0744719442219546,0.08955252619472778,0.019479452574192306,-0.06146524929822868,0.04670810364296691,-0.03930757082131632,0.010960990057530009,0.04747623309780202,0.02021631329805668,0.03628279722486429,-0.09637295777349118,0.0870611839320715,0.023716464485792482,0.08998822056041382,-0.016654051385926325,0.09002809503583156,0.01888784170582379,-0.07678515941720165,0.08905151641403139,-0.037838427662870024,0.0007504276884652501,-0.038419470331164524,0.057896367203703496,0.010375111945677655,-0.09854195719402176,-0.08034929986111368,-0.022922813901850584,-0.03752243903579892,0.09997399401153177,0.06758887020267075,-0.09894622240238561,-0.044176528360412456,-0.09928093308386962,-0.0037396903388224856,0.0671223922412308,-0.03134317217823037,0.07084604528109584,0.07796662235440842,0.03952829513256708,0.0188553584669096,0.04136039930237393,-0.03800130974654584,-0.040227541940442105,0.030252096980673097,0.06241684173586073,0.08074231583721621,-0.05225216448587283,0.09966498983465635,0.0064654138411604735,-0.08570071038046118,-0.0377698009307152,-0.08414394923492506,-0.007650174889861055,0.028920116698348725,0.08715013617770336,0.09614894329369332,-0.02602055619986905,0.025316735067129795,-0.07359854041928028,0.08070573888510552,-0.06007736325316082,-0.04621662534866373,0.014251130286236306,0.08662232567943759,-0.07573341678808118,0.024115144119049855,-0.006386058939576993,-0.04055398700820358,-0.03537516090593611,0.04915803579211355,-0.06804451702025412,-0.09122261246392678,-0.09579539528001296,0.08344655081384747,-0.07411514894500824,-0.034646545068729634,0.0945801928346967,-0.0728509609451399,0.023276110380046133,-0.02367691490444322,0.10160053812821732,-0.003957893770298355,-0.09971183752516695,0.07146651485265179,-0.06416349671392267,-0.007172110971698026,-0.03083500944784177,-0.06975255381351403,-0.0966097128029581,0.05117111016893274,-0.025956640658828255,0.022742754992432737,0.05413474312217649,-0.03863326689790451,0.09992600570370533,-0.00519199898275059,-0.10088591630987065,-0.07216580395467447,-0.004286901571640984,-0.03292441529255808,0.013560888913523339,-0.008086886609346084,0.10110833006934583,0.06893585062622679,-0.05243491259248216,-0.0581928395875516,-0.0588551303257122,0.018116051128610106,-0.01268978080005179,-0.021328034626542272,-0.054298170498403124,-0.013835001579601644,-0.020478781203822762,-0.05220177748660482,-0.04071929307597897,0.04991451168947155,-0.09532855608180912,-0.08138152576859334,0.005714179851761397,0.012950634160862727,0.010504981940273599,-0.06499688890447289,0.09213164351591067,-0.10142065398758739
0.06081192972833874,-0.030227693300536977,-0.08795736871893035,0.08391077194340449,0.030305814865199763,0.08128844416997547,0.06787565775877999,-0.061681813301829716,0.05895654559007606,-0.0016374474274566387,-0.054604270956160536,-0.009913839811944639,-0.04056347675329875,0.012154167023199094,-0.028510726018280072,-0.004067194908294519,0.03083551595646211,-0.09851809907640421,-0.010130101127989453,-0.026597614381501274,-0.008281428445962942,0.04142685598490538,0.007042126162705428,-0.035120418716940376,0.05981426761877057,0.02412533888956813,-0.010170247735699385,-0.015713232998273523,-0.02211461437990375,-0.07761430040058355,-0.01331892086867244,-0.022949012898349924,0.07173697492893588,0.055642193758543186,-0.08313488984684426,-0.10256171684655395,-0.05876477383074482,0.10151327792927273,0.015984016564765256,0.09740558208902571,0.07877238765026984,0.022089031357666544,0.021456680699153095,0.07859982018967149,-0.06923045716952146,-0.000829611581640603,0.10099148205004027,-0.0639929323980059,-0.028178249697738255,0.009693408061344801,0.01590993799681383,-0.0818156730290833,-0.09773692161356536,-0.053607878414104075,0.033452475465592386,0.007971750543450852,-0.016907125306152116,-0.06287168617026496,0.01459132300226807,0.01922815566931118,-0.0257556607692168,0.007730098787658067,0.04730624169806755,0.00046305571732549493,-0.038440991751301626,0.025767127415088374,-0.07888689050911615,-0.04914783051170466,0.08461085729531327,-0.011397398876574791,-0.09558081141335756,0.05867154578449329,-0.017316078875886067,-0.0013875162989037569,0.03348505574446999,-0.060558179620402,-0.052820113948220435,0.09781629462015645,-0.08426964565700323,-0.08179907274672389,-0.03927917266697115,0.029606218582488644,0.038077993445995155,-0.011173895246060066,0.08577543642136093,0.06337482232225405,0.012938224368980743,0.04221904666331581,-0.06990611369915939,0.012409951679821745,0.04787735319610366,0.01196872890065523,-0.0196804538460585,0.06905494442001457,0.021743155943719252,-0.09996553482998932,0.006883896832107451,-0.09261703269187414,0.06935599473501333,0.09156978040126712,0.04868868009578696,0.049819286994907716,-0.09819157427455683,0.06296718138243576,0.03950902403508271,0.024645910369685737,0.04105197294260584,0.09642204746947229,0.08129566866208554,-0.025969990333600947,-0.02137826702006581,0.010879603191464367,0.06949002534262383,0.07507492908510606,0.060592803468162426,-0.034620232390184566,-0.05270767477421956,-0.028281496615865143,-0.048667307529462474,0.014402994605357064,0.016544796195637174,-0.09101069441894989,0.020400561002241416,-0.04900101632456415,0.04403504246042788,-0.047702288922955034,-0.02692455781285996,0.05484471520924881,0.023824165247563093,0.03089364144699044,0.04585170927173284,0.08041773672127783,0.022993521219835392,-0.004796922667408864,0.029008466437204894,0.09100122605859742,-0.004387197028393125,0.05760690353594226,-0.08445159599275126,0.06965085954892668,-0.06489262580176412,0.028014652436885955,0.07332351124131545,0.025863002661766298,0.0417887684135353,0.05197497707215221,-0.06213535095584144,-0.006365173456301334,0.08572819548289669,-0.0929535502436658,-0.042350007789777815,-0.00856909885362553,0.08894316749245963,0.048287915792181384,-0.03536316629333389,0.009357883702050214,-0.012864361179004595,-0.02791943065588393,-0.019479648442412543,0.0916589999615145,0.06930361722452094,0.048814313614201264,-0.06569469078634775,0.03295414538134114,0.04133019507382763,0.06371108320052457,0.01950505762425515,0.026105454524889847,-0.03712218888489437,-0.0018835645942449864,0.05273754381133372,-0.06701797753966497,0.09138171201233881,0.08283631503641907,-0.05661822178345505,-0.010499751263291284,0.05832901425711506,0.040654178698012716,-0.023040878400610643,0.044674258860481125,0.08865047731435563,-0.020915324281102494,0.09538575702611832,-0.009002269004863738,0.03182480454161956,0.09909129842454745,-0.08887992904832694,0.07940254842670282,0.027142733905370756,0.03233466801271913,-0.09654806266824174,-0.0032964733716695643,0.02240349534448012,-0.05139098697110041,0.063031595900619,-0.0815689763302975,0.049841092599575344,0.05528373268813158,-0.0014118611410197156,0.09647452551541733,-0.047381047924100375,-0.0655802409750919,-0.0869808660367561,0.06385821572406242,-0.05861352621307734,-0.012334691306028251,-0.011217549288647394,0.028895643813740924,0.06099450183776522,-0.006555391058840581,-0.0762175322951975,0.08372782528630902,0.011068829183300164,0.027280754287353926,0.06587222195584919,0.04911333097902979,0.02896566026104282,-0.08715287224472172,-0.005326650709333851,-0.020979937315782182,0.07480957557147536,0.016430624748848703,-0.016994434274935417,-0.034510431049470006,-0.046868710944518444,0.04219476007863453,0.047357406292524266,-0.06859683182119976,0.04525550126932484,0.07338723146929413,-0.00679805992732861,-0.08322220653420553,-0.03161551044936473,0.10176624172325477,0.07458363878267281,-0.06120381239347487,-0.03413468050347194,-0.088769243574396,-0.01246478579681991,0.05695275250235647,0.032413584387012195,-0.004696749810979727,-0.10023387207920391,-0.05902425165133713,0.0465872808172596,-0.012330759462130135,-0.028557919643637054,-0.04371818233035282,-0.057895926750572826,0.016329526724211778,0.07303197020255327,0.00768008374667371,-0.07251845609809633,-0.05640949116329224,0.07250106860487822,-0.06204859035007216,0.07069618625842707,-0.09463817128527498,0.09145108035672576,0.10247436254088042,0.09236466394036884,0.011781268711653048,-0.0808683382452402,0.0018865039299309023,0.07213358626180014,-0.07190071833649014,0.05407576926083254,-0.02512407736417956,-0.015557918517504056,0.014510212925963524,0.104422469801074,-0.027174708003195634,0.04559746870292038,-0.10499438857542596,-0.06951210144742144,-0.043761118931102384,-0.07782498031444168,0.03699809878572068,0.02305874470665197,0.027386220367446687,-0.002944086556412632,-0.01274629856556863,0.04361958352412023,-0.024699971781814906,-0.07256214992256442,0.04075877124371122,0.007228070602697742,-0.0028381127999191308
